{"layers":[{"out_depth":59,"out_sx":1,"out_sy":1,"layer_type":"input"},{"out_depth":50,"out_sx":1,"out_sy":1,"layer_type":"fc","num_inputs":59,"l1_decay_mul":0,"l2_decay_mul":1,"filters":[{"sx":1,"sy":1,"depth":59,"w":{"0":-0.08638022320353607,"1":-0.08304987583564248,"2":-0.022871399920100625,"3":-0.11169794875417942,"4":0.12184226166062416,"5":-0.030095803215177738,"6":0.3089406453076841,"7":0.11920243788528631,"8":-0.016177313953073376,"9":0.11594399695138365,"10":0.14124147775504003,"11":-0.0729911025677512,"12":-0.1237171288154155,"13":0.1494712805960262,"14":0.017027467775319813,"15":-0.029672007945661914,"16":0.0037534330677445704,"17":-0.050459546455278316,"18":0.13195204838691751,"19":-0.005472513531063082,"20":0.053848346947852135,"21":0.15948844495671563,"22":0.16473344118126299,"23":0.05501420821828307,"24":-0.16881261916822488,"25":0.13191932766655898,"26":0.044816708003132325,"27":0.055044250897983364,"28":-0.010673890379096246,"29":-0.08042437240908464,"30":-0.2976266220036762,"31":0.08179988294068352,"32":0.18430385549685901,"33":0.03959278284627768,"34":0.08066234127004111,"35":0.05597069333348255,"36":-0.11845331640891255,"37":0.22941631207530147,"38":-0.24226914418260595,"39":-0.018099645821395574,"40":0.1870579323775786,"41":0.15562144919027165,"42":0.030670777258576934,"43":0.23120175766088952,"44":0.12910807860889895,"45":0.06935552317144227,"46":-0.03908014031258384,"47":-0.1649086802885586,"48":-0.1824807413788403,"49":-0.04275951656838035,"50":0.04482803703975782,"51":-0.13333672780128464,"52":-0.14828838253028392,"53":0.005964721568412478,"54":-0.08971438231894474,"55":-0.1382344958370769,"56":0.009526790813427286,"57":-0.06378869858596686,"58":0.1291574103268249}},{"sx":1,"sy":1,"depth":59,"w":{"0":0.2108179232095314,"1":-0.00047015009987414706,"2":-0.03128888365162823,"3":0.007072785050241673,"4":0.06358712150110597,"5":-0.07881563972594845,"6":0.08672571944515785,"7":-0.022202390288863227,"8":-0.3088779914457749,"9":0.001857241645798137,"10":0.06414800435385291,"11":0.15257268296780255,"12":0.014269590329668392,"13":0.14365661933481952,"14":-0.006209253843929389,"15":-0.20434993878047022,"16":0.04388040182032342,"17":-0.0233997538770735,"18":0.0689998887551304,"19":-0.12757767789146202,"20":0.06652933297782018,"21":-0.0446743494458649,"22":-0.13886031825498177,"23":-0.17689455965647957,"24":0.029115386893469188,"25":0.013672623676151742,"26":0.018335306276407375,"27":-0.22722362311131186,"28":0.18259949105830542,"29":0.0033506953392611147,"30":0.012101272188296883,"31":0.11718012252620591,"32":-0.0017625164272744495,"33":0.07054531491525647,"34":0.2652284164790071,"35":0.06870074081822859,"36":0.003458527875836682,"37":0.02173597061852394,"38":-0.058234183905649904,"39":-0.03836578971286298,"40":0.05140124452469659,"41":-0.048893587802721954,"42":-0.03952326979628221,"43":0.18996563948267603,"44":-0.005539462403788232,"45":-0.03326285444254207,"46":-0.01759983380125335,"47":0.006186468284599972,"48":-0.01788259144585649,"49":-0.001256843149910737,"50":-0.021763092330622145,"51":0.07753954847299142,"52":-0.058458783571059145,"53":0.01782073344300129,"54":0.010633710553875577,"55":-0.06512369503539153,"56":-0.18104567234259264,"57":-0.09485799582427619,"58":-0.15191527325777307}},{"sx":1,"sy":1,"depth":59,"w":{"0":0.13332664884830345,"1":-0.11221132107073907,"2":-0.07433532806667802,"3":-0.14897814972361786,"4":0.1699040044772683,"5":0.042879606896039965,"6":-0.027197361323150322,"7":-0.10859025218700465,"8":0.09591667050053056,"9":0.02811632495946973,"10":0.0707345494620263,"11":0.04384047313722342,"12":0.04408809987955121,"13":-0.054624884295993895,"14":0.04689199128318668,"15":-0.22306302952534016,"16":0.08106992743516483,"17":0.09838278763333681,"18":-0.07528867689793933,"19":-0.09185191394103508,"20":0.026461844954789118,"21":0.0030615249159072567,"22":0.022653610543230018,"23":-0.07926373217370154,"24":0.035661912420754074,"25":0.10241931599496205,"26":-0.12396695380470446,"27":-0.06703247339759724,"28":-0.06715870195153505,"29":0.04206709191923704,"30":0.028444824463271758,"31":-0.10287180240439897,"32":-0.12534622316014735,"33":0.02898144899537622,"34":-0.32457387972729124,"35":-0.1784513668032096,"36":0.035857479069034984,"37":-0.04518433544612363,"38":-0.17359395449330653,"39":-0.09580227277114231,"40":-0.14462063953733503,"41":0.02155048336939659,"42":0.03702571772659572,"43":0.036565489682343674,"44":0.016358355417921543,"45":0.03135397678257133,"46":-0.06786687563593766,"47":0.13338906073072207,"48":-0.10684867057102398,"49":0.0702785960285624,"50":-0.15744979313665655,"51":0.2770032693723026,"52":-0.12447599266456161,"53":0.07944404554222095,"54":0.010404682451376263,"55":-0.09235657989005254,"56":0.11434027085267091,"57":0.009035542048855967,"58":0.012788385788442937}},{"sx":1,"sy":1,"depth":59,"w":{"0":0.2161476414167155,"1":-0.24437646505566768,"2":-0.09961564315889851,"3":0.14286918146367075,"4":-0.45239073780722006,"5":0.2487078240466179,"6":0.12523294380685057,"7":-0.2557058374611188,"8":-0.19012950007194182,"9":0.09715331312237106,"10":-0.2110578512085211,"11":-0.08852145333546176,"12":0.12444138415090857,"13":-0.1606494244035401,"14":0.06617156320568926,"15":0.1599848172000211,"16":-0.3196599515179963,"17":0.3471193060195194,"18":0.1071991029813174,"19":-0.019987912537800568,"20":0.3169969448858555,"21":0.007608206546756669,"22":0.2323921787217824,"23":0.1209752584112978,"24":0.22803896337555937,"25":-0.04820706880738848,"26":0.25948136334568245,"27":-0.22356474323452338,"28":0.05543925997986101,"29":0.10418430413079167,"30":-0.013007816932409193,"31":-0.17649552889321907,"32":0.03071678171567221,"33":0.03991240035362793,"34":-0.05130683002776628,"35":0.032211305699997486,"36":0.12250044680448194,"37":-0.08922857353331086,"38":0.1253793959274921,"39":0.04028442971108214,"40":-0.03294732659472555,"41":0.08677691399525385,"42":0.12741221512703002,"43":-0.00842058087828075,"44":0.11691357957362068,"45":-0.018338036713162805,"46":0.07474914506504174,"47":0.08075491303739032,"48":0.0208390652864583,"49":0.04382313792310283,"50":-0.07439076940299025,"51":0.04370677285833365,"52":-0.003140281081846809,"53":0.25298352054529794,"54":0.008042732980593558,"55":0.07722430082052163,"56":0.13705814768003868,"57":0.07953919899717904,"58":0.0470914402541783}},{"sx":1,"sy":1,"depth":59,"w":{"0":0.019114398550856695,"1":0.3466154734367701,"2":0.04484911223567846,"3":0.16845171689378252,"4":-0.07179557385486615,"5":-0.1745563732409752,"6":0.12068249785930815,"7":-0.040825724659013345,"8":-0.06554517565070596,"9":0.09431372899808463,"10":0.1252046246767416,"11":-0.14841124031981875,"12":0.008054883597543848,"13":-0.02874664656323216,"14":-0.05232156227789708,"15":-0.08775129203622296,"16":0.035296926814572666,"17":0.023438193471460433,"18":-0.016305202984282913,"19":-0.19027668187254876,"20":0.057957493669309426,"21":-0.08150557944863693,"22":0.07955977244619356,"23":-0.06500906172442822,"24":-0.07007524665355618,"25":-0.06901371904690702,"26":-0.1252075632216559,"27":0.05516611512759212,"28":0.09132201501536771,"29":-0.112451809040565,"30":0.002440883363536385,"31":-0.11138853323963663,"32":-0.14714610397804617,"33":-0.20442814948326032,"34":0.09140684034531367,"35":0.056031514718670516,"36":-0.08970900299060616,"37":0.01547531187143611,"38":0.12115239423447553,"39":-0.02373551141720176,"40":-0.038423669785162956,"41":-0.06702344452287173,"42":-0.4111902790843619,"43":0.10095960398367704,"44":0.037409862598088386,"45":-0.02847895622758413,"46":-0.030443651078547893,"47":0.1357916026614715,"48":0.05823057801679216,"49":-0.11647547454902349,"50":-0.04713761007051552,"51":0.03172851430275927,"52":0.09162070062067681,"53":-0.038358163777718314,"54":-0.11379992807216739,"55":0.034326656263586136,"56":0.10842469143334613,"57":-0.22418898621309796,"58":0.0037544702056104048}},{"sx":1,"sy":1,"depth":59,"w":{"0":0.027476642952554357,"1":0.13818772738151466,"2":0.005563123101127096,"3":0.06587627915467169,"4":-0.19546934899761675,"5":-0.18267103332124948,"6":0.11367925350920029,"7":0.08081078374760801,"8":-0.0841683156284044,"9":0.07406971293463553,"10":0.1942101473034735,"11":-0.20568145608440616,"12":0.024836343666866153,"13":0.12909266363273372,"14":0.04661442093047692,"15":-0.23561756804615366,"16":0.22555702587673215,"17":-0.3108424745596361,"18":-0.16693716593243,"19":-0.017903022781052474,"20":-0.019327114961431018,"21":-0.21916388392048394,"22":0.027088317438803453,"23":-0.024769928242208764,"24":-0.03496914150891152,"25":-0.11035342049371198,"26":-0.11390915999286885,"27":-0.13799645015262657,"28":-0.16496838996044538,"29":0.061266048972875166,"30":0.005555874312146239,"31":0.18294310735032118,"32":0.08645658229443647,"33":-0.06407548212023795,"34":-0.07071352507318604,"35":0.014724632793065953,"36":-0.11306422372929001,"37":-0.07112683687519036,"38":-0.06242950872078776,"39":-0.005509850334869149,"40":0.0016592770310902064,"41":-0.04800168419047781,"42":0.005423156905989376,"43":0.030134690350669634,"44":-0.25169186326200255,"45":0.1587871248746986,"46":-0.06860216473655481,"47":0.10689345685866868,"48":0.06174701603128908,"49":-0.15019204840270295,"50":-0.071560700259759,"51":0.11767149947338328,"52":-0.009389699831098643,"53":-0.05097571469425823,"54":0.2238391103534202,"55":0.1299898141883697,"56":0.099626940461251,"57":-0.018465256335474477,"58":-0.056271821088335304}},{"sx":1,"sy":1,"depth":59,"w":{"0":-0.05213584258168457,"1":-0.10004141453324816,"2":0.1350665979936396,"3":-0.07277710621561286,"4":-0.14384245234860796,"5":-0.22320437000696058,"6":0.024137963840272253,"7":0.05846979250735074,"8":0.08082774030137611,"9":0.05728838411699615,"10":-0.05282900169134931,"11":-0.07194180677940987,"12":0.02860965728354134,"13":-0.15398192094193477,"14":0.18149043376739546,"15":-0.03735904042692764,"16":-0.04343577764224159,"17":-0.01719362193132417,"18":-0.08921995384552106,"19":-0.126048052268124,"20":-0.13847911499765614,"21":0.11919534624145026,"22":-0.0074583246308686756,"23":-0.12822478581696722,"24":0.0936031710406331,"25":0.024135134766980853,"26":-0.0024045817106890834,"27":0.012447825878872987,"28":-0.22357224167446707,"29":0.1486475375033129,"30":-0.028481812669043455,"31":0.024967514454292076,"32":0.17781401716584316,"33":0.09789301213073993,"34":-0.15100601968330474,"35":-0.019900436535851457,"36":-0.08935762340729668,"37":-0.021736537925889393,"38":-0.21364366771882295,"39":-0.02467333061440787,"40":-0.25433340508229024,"41":-0.00509872889336553,"42":0.18476827456780975,"43":-0.149249342724757,"44":-0.056125840279009506,"45":-0.0705461447643532,"46":0.044574572052258454,"47":-0.014421459365936452,"48":0.05059243228931649,"49":-0.07519724591299419,"50":0.04321696566476896,"51":-0.07209207423926937,"52":0.116694144256527,"53":-0.08508266539256122,"54":0.002090213950653898,"55":0.15698025504056273,"56":0.13188187813271873,"57":-0.16366249779552866,"58":0.0098117875185742}},{"sx":1,"sy":1,"depth":59,"w":{"0":-0.17475827981562506,"1":-0.025669209359184306,"2":-0.08819189227533238,"3":0.18288670015797734,"4":-0.20250576261668357,"5":-0.1093110079864621,"6":0.06760303300019804,"7":0.22696857746586238,"8":-0.10831083188996062,"9":0.1830737275022611,"10":0.054940642291041904,"11":-0.1352239064004724,"12":0.010085795211996162,"13":0.18154899326388363,"14":0.06647446845009088,"15":0.1260599121484502,"16":0.047714912658952884,"17":-0.20966998786472263,"18":-0.016688971056452277,"19":0.1378090111902653,"20":0.07557593614661656,"21":0.11378632877883277,"22":0.020388435136516295,"23":0.09726729469274419,"24":0.01684072502073325,"25":0.04325261438203076,"26":-0.34719037927386204,"27":0.10108733066037867,"28":0.04548901970200025,"29":-0.08602230215380573,"30":-0.05989243076626453,"31":-0.052224529256403356,"32":-0.072313785946903,"33":0.0732146242371747,"34":-0.07452629532216792,"35":-0.2007409807978863,"36":0.09868118441072155,"37":0.041931581269540656,"38":-0.2004633424155449,"39":0.02528846068892172,"40":0.015169597136920692,"41":-0.04196026396220581,"42":-0.03449793485138606,"43":0.13581767673215278,"44":-0.05073253559908996,"45":0.0563044608936703,"46":0.013508759612440161,"47":0.013618052823846575,"48":0.04091927730612609,"49":-0.14263549879647788,"50":0.13595904745679138,"51":0.16657564029013402,"52":0.040083483115821,"53":-0.1289668391239448,"54":0.10555820020257435,"55":0.17856603448465314,"56":0.011084267411811755,"57":0.2730781489244975,"58":-0.02961438853597121}},{"sx":1,"sy":1,"depth":59,"w":{"0":-0.0026362841684785475,"1":-0.12126942438413378,"2":0.12351439626509934,"3":0.01743269236324978,"4":-0.27667752984794497,"5":0.18203951518885858,"6":0.03915349876969772,"7":-0.24853026470073133,"8":0.015803728017595955,"9":0.04788371161476673,"10":-0.1700014665683607,"11":0.024725010928435508,"12":-0.006257722678116498,"13":0.01696406137126596,"14":0.156854051366555,"15":-0.0385128149593886,"16":-0.3000865938216452,"17":0.14448443831811209,"18":-0.03070306687030391,"19":-0.21932761959129796,"20":-0.05602368031350984,"21":-0.09434658080502008,"22":-0.21112093173703292,"23":-0.02748703337242939,"24":-0.18864265531219948,"25":0.02507697550187031,"26":-0.06795079339158248,"27":0.2164405597522955,"28":0.20270691532461474,"29":0.11285988095461266,"30":0.0636164712002626,"31":0.0308988589248246,"32":-0.017124402171861064,"33":0.021194163610239274,"34":-0.14673553849087045,"35":0.20344238241410992,"36":-0.05090072207851048,"37":0.20592877216741318,"38":-0.028971968165015467,"39":0.10322053370308266,"40":-0.05184535330580787,"41":0.05414378740595281,"42":0.26995258435816355,"43":-0.15964053557489555,"44":0.008048331786938982,"45":0.011048268037951808,"46":-0.15569606922408868,"47":0.0029274284729274153,"48":-0.19034331032246418,"49":0.025365195992849414,"50":-0.05735687956945306,"51":0.05810713182027522,"52":0.12246212315939009,"53":0.021013432063753334,"54":0.1603856947117896,"55":0.01003587985129603,"56":-0.06834068800620026,"57":0.07237804677582557,"58":-0.1299778710000906}},{"sx":1,"sy":1,"depth":59,"w":{"0":0.26511190107366533,"1":-0.07294940113093677,"2":-0.10267982309364052,"3":-0.06554968295077537,"4":-0.13259411208595304,"5":-0.19776098716544863,"6":0.08687802097165429,"7":0.025531687176342063,"8":-0.27802320441077766,"9":0.0060120049579649604,"10":-0.18011916547103357,"11":0.008792041560986272,"12":-0.08178638279146921,"13":-0.06132004516928031,"14":-0.036725123275755625,"15":0.2086253104601955,"16":0.08512215897915741,"17":0.10082188773453407,"18":-0.042272029837941046,"19":0.07319883337029512,"20":0.08853488896192047,"21":-0.11141778679107188,"22":-0.274791219645074,"23":-0.13808185511051055,"24":-0.05384376197822685,"25":-0.1023899148853591,"26":-0.06443198926858239,"27":0.18561552256511812,"28":-0.0355726011194525,"29":0.041154817011580185,"30":-0.021652040496894853,"31":-0.14553049537357676,"32":-0.023102556529832088,"33":-0.013449219778963437,"34":-0.0943741661705217,"35":0.06115562307315451,"36":0.006549790618758786,"37":-0.12906003424691548,"38":0.016117612191312428,"39":-0.26596628427420266,"40":-0.22609038104245735,"41":0.0027556144106375955,"42":0.11530897765568932,"43":-0.18520435804945568,"44":-0.18872560823950346,"45":-0.03522632894910161,"46":-0.07562696652837844,"47":0.08786826969718949,"48":-0.028269048126510026,"49":-0.03689515388793128,"50":-0.026250908156168408,"51":0.09098767320115628,"52":-0.20172040362878627,"53":0.13749282400206034,"54":-0.2251432577954656,"55":-0.06678974070189764,"56":-0.14829749408278856,"57":0.04099630255924782,"58":-0.06444305376913133}},{"sx":1,"sy":1,"depth":59,"w":{"0":-0.013475828844740812,"1":-0.07324822296369958,"2":0.17596806484637004,"3":-0.07082493605229473,"4":-0.047051920693817376,"5":-0.015829288806135985,"6":-0.23802899575422315,"7":-0.043544130264329114,"8":0.20153483707795758,"9":0.03271552460591479,"10":-0.010863914154080716,"11":0.007562342431931748,"12":-0.14198796310400283,"13":-0.10719560266292454,"14":0.1501700611366786,"15":-0.2123580839376982,"16":-0.06650302023908718,"17":0.2757379389331221,"18":0.020900206931058065,"19":0.08442957366401305,"20":0.13195957311932796,"21":-0.1049936216084019,"22":-0.06700433833727495,"23":-0.0450133921286217,"24":0.026426760083448613,"25":-0.010262480428149123,"26":0.08267606199691029,"27":0.19516282520872266,"28":-0.20622766175574017,"29":-0.0535045837217734,"30":-0.17818384632336787,"31":-0.012284767350938055,"32":0.0314098128996911,"33":-0.10329568494392,"34":0.2724075919395035,"35":0.03467621689571319,"36":0.004753369324673681,"37":0.09837859783338272,"38":0.11765530873123832,"39":-0.018330917544613398,"40":-0.11394974561419244,"41":-0.036609168321157896,"42":-0.10296399062857929,"43":-0.08734372622877332,"44":0.01909321048628596,"45":-0.02020317514120102,"46":-0.18132655996114191,"47":0.007512751775882076,"48":0.15906480933345232,"49":-0.29146790316427124,"50":-0.11353904208648151,"51":0.14055456885925444,"52":0.009613287052526244,"53":0.07299879596888617,"54":0.08293456898137734,"55":0.17678799039628887,"56":-0.12486325893607336,"57":-0.06347009992047266,"58":0.03337442769254234}},{"sx":1,"sy":1,"depth":59,"w":{"0":-0.0004722291610195753,"1":-0.05985499836389413,"2":0.07481519379170677,"3":0.11372168356262616,"4":0.19991534931546132,"5":-0.06252323749589332,"6":-0.06909727362006485,"7":-0.15102889689959748,"8":-0.09861693618273189,"9":-0.017495006325261096,"10":0.05299541449822529,"11":0.08017371424546955,"12":0.253719487132363,"13":0.18095311589294047,"14":0.06270286334239261,"15":-0.04000141641573864,"16":-0.03122378164084449,"17":-0.06538085160122882,"18":0.03660565539690552,"19":0.028979953122686607,"20":0.11503713606037119,"21":-0.2772604735284984,"22":0.03905415568186264,"23":0.0892033332702775,"24":0.0009940230706776349,"25":-0.11512465999457255,"26":0.07449937440875767,"27":-0.13731943612800518,"28":-0.014847507970202019,"29":0.023464217197439602,"30":-0.07450941294456011,"31":-0.06709173609838849,"32":0.20917916698335817,"33":0.05927145195455283,"34":0.03810939670381473,"35":0.14635065235989114,"36":-0.16867924816524765,"37":0.018799045839382723,"38":0.1727566597940643,"39":-0.03001183238937864,"40":0.14104680761355068,"41":0.08886205990841643,"42":-0.092841846221338,"43":0.007879313333761873,"44":0.06551484310536156,"45":0.12525208082432238,"46":0.04559313470141424,"47":0.1051143799949334,"48":-0.0006521765491341539,"49":0.009689456482333063,"50":0.1592425353445473,"51":-0.11861069330414999,"52":-0.0857393676218728,"53":-0.0888361239614741,"54":0.1473487352940584,"55":-0.021684257778310116,"56":-0.05817887571805233,"57":-0.07296135047217868,"58":-0.1029726177677344}},{"sx":1,"sy":1,"depth":59,"w":{"0":0.09988156116018358,"1":-0.01892165792459412,"2":0.0029044945790697783,"3":0.02652237836847371,"4":-0.16333337908133366,"5":-0.10593283677024382,"6":-0.14841093296640717,"7":-0.14424291155666757,"8":-0.02236408997630119,"9":0.2460206885797233,"10":-0.21869267657718358,"11":0.07161216159753003,"12":-0.11168572667174109,"13":-0.10143898414435042,"14":0.05755111841234622,"15":-0.09426731809868659,"16":-0.12735032281136252,"17":0.00334235973102466,"18":-0.011099995651649564,"19":0.011746078231524378,"20":-0.07035173715491226,"21":-0.1076408874955116,"22":-0.10586185398195343,"23":-0.08807140341285556,"24":-0.17133789183392986,"25":0.07603636506657702,"26":0.01835677654661354,"27":0.06881905274080855,"28":-0.15964692035520922,"29":0.17485887358694124,"30":0.32661338570304715,"31":0.04070451166622738,"32":0.003821110863566669,"33":0.11498163069445336,"34":0.05979855872611716,"35":0.054004113079953536,"36":0.0214402320943901,"37":-0.012023611413605733,"38":0.06782276433893607,"39":-0.12739145179031788,"40":-0.10631412569083462,"41":0.17157202478717246,"42":-0.09439769457210674,"43":0.042603507270906116,"44":0.17302114893328044,"45":-0.0859149807170663,"46":-0.19857707792138657,"47":0.06545290444614661,"48":-0.13079338333070975,"49":-0.06694989349082806,"50":0.22679945856623743,"51":0.024839387894160864,"52":-0.05952099403806987,"53":-0.003226536310770665,"54":0.011621206935290191,"55":0.03538748623179383,"56":-0.11407353530220687,"57":-0.08175221911290934,"58":0.07022126222698248}},{"sx":1,"sy":1,"depth":59,"w":{"0":-0.07575354247494967,"1":0.024942372663625745,"2":0.09142155939917654,"3":0.04299431935462655,"4":-0.08654306900840697,"5":0.06454007734681819,"6":-0.007427793338853745,"7":-0.2702917047375487,"8":0.1462746721542696,"9":0.2038120342420644,"10":0.009093934831332737,"11":-0.08750027358855984,"12":0.1420184301707968,"13":-0.2802833263395047,"14":-0.02235788188323103,"15":0.13886449545496662,"16":-0.0204278513564303,"17":0.0932483067147418,"18":0.020472019027978423,"19":0.016442298374437222,"20":-0.01856101688788191,"21":0.09959004485671419,"22":-0.013364983476159584,"23":0.04655387052833104,"24":-0.04502152757405811,"25":0.002248793819294721,"26":-0.1801647126398415,"27":0.12443991914419963,"28":-0.0834369846050728,"29":-0.0388363548099478,"30":-0.08970606156198305,"31":-0.03212005944271236,"32":0.05905342273180132,"33":0.19341473941421455,"34":-0.05564429002725334,"35":-0.07365929944242199,"36":0.06322841412807431,"37":-0.14088605458805922,"38":-0.049505190670026886,"39":-0.18644894288742975,"40":0.10121835524116601,"41":-0.010104618979926393,"42":0.06767117327897212,"43":-0.022625947241086023,"44":-0.21299591307282872,"45":0.02177825418436393,"46":-0.056327574772635766,"47":-0.0913803825857637,"48":-0.000925306479069717,"49":-0.2677108228913512,"50":0.07135469526145939,"51":-0.24374957795847513,"52":-0.1302851413269106,"53":-0.21781932684958588,"54":0.09868622689115404,"55":0.11728517802879143,"56":-0.28243438454970715,"57":0.24038737368690852,"58":-0.06519687263377985}},{"sx":1,"sy":1,"depth":59,"w":{"0":-0.22940861693821518,"1":-0.48399425918977723,"2":-0.1530660081561413,"3":-0.16405803827334942,"4":-0.2542877294008337,"5":0.25143090179466154,"6":-0.08685546834547668,"7":-0.18861424984701816,"8":-0.18491589739524653,"9":-0.20433029825481594,"10":-0.5292049416966523,"11":0.26573444841065463,"12":-0.07303292116749366,"13":-0.05703012035181943,"14":0.14737528335666647,"15":0.25221176131430945,"16":-0.03963267717110499,"17":-0.14639434673692212,"18":0.13725517018952574,"19":-0.011406862761277505,"20":-0.12020123002418136,"21":0.10103023237040355,"22":-0.16573127573588747,"23":0.07468729078652196,"24":0.060295336642418464,"25":0.021704354876170166,"26":0.04318049155080318,"27":-0.03334938670312372,"28":-0.3589335740342833,"29":0.0644634506775381,"30":-0.03479240508155951,"31":-0.17770642215984253,"32":-0.17130392209510775,"33":-0.06978118357227885,"34":-0.30720222537834785,"35":0.2017442770273115,"36":0.016978728203603216,"37":-0.1583516024162902,"38":-0.011932191750493572,"39":-0.05194724210354442,"40":-0.25635245458286093,"41":0.10735089942022634,"42":0.06073701416050158,"43":-0.2593243843883472,"44":0.017639503644498223,"45":0.06381120232332055,"46":-0.16127882992270953,"47":0.12435554274993692,"48":0.04551474437968455,"49":0.02601319096913084,"50":-0.04908271552409845,"51":-0.005153965174008742,"52":-0.142055512562072,"53":0.002389492445409217,"54":0.09537041636097437,"55":0.08967798997218551,"56":0.10410072530969548,"57":0.10911396567159484,"58":0.050423599165267556}},{"sx":1,"sy":1,"depth":59,"w":{"0":0.083209045663063,"1":0.2801878399635802,"2":-0.014572246956286403,"3":-0.061644773227234856,"4":0.05474917926373616,"5":-0.10763703216780074,"6":0.18339885319715046,"7":0.0610337713976043,"8":0.10810387289659897,"9":0.09745456252855254,"10":-0.020884490946669457,"11":0.09719117534680503,"12":-0.11285265446544153,"13":-0.08054985917528625,"14":-0.1036133617225095,"15":-0.03059057511108008,"16":-0.01458999509394836,"17":-0.19028965630646125,"18":0.17604433344199485,"19":-0.03139814736703979,"20":-0.21468999565235058,"21":0.15813541967973488,"22":0.15289458701006733,"23":-0.2730706314633094,"24":0.11761698077567018,"25":-0.028857124194366514,"26":0.06869861346439043,"27":-0.07471422183363058,"28":0.11894483940958801,"29":-0.062391015623159435,"30":-0.1483146547466695,"31":0.017465030011200065,"32":-0.12205276164978368,"33":-0.0720277742909342,"34":0.0983910272142733,"35":-0.044139394500116225,"36":-0.10702183147099596,"37":0.011211374025548103,"38":-0.09563136629359967,"39":-0.022757656081384095,"40":-0.18527786185724818,"41":0.061902666798476134,"42":0.2861507218473545,"43":-0.03775087275852749,"44":0.09045518251419116,"45":0.07280673548612654,"46":0.02666923669674825,"47":-0.06270516434368262,"48":-0.041674242599955655,"49":0.0027992738488302068,"50":-0.05636402190019193,"51":0.13148154219666053,"52":0.1369982800408587,"53":-0.026337834781520388,"54":-0.04739997098283719,"55":-0.10132629301066837,"56":0.12403480556700701,"57":0.04337002608237136,"58":0.2292787997446343}},{"sx":1,"sy":1,"depth":59,"w":{"0":-0.1188830222402408,"1":-0.05402486627476453,"2":0.0703200823525591,"3":0.0801227723934195,"4":0.1146992287316555,"5":-0.03178886616982904,"6":-0.005822259057037314,"7":-0.07490544261882849,"8":0.005516126494149348,"9":0.16920259140247831,"10":-0.080401231904255,"11":-0.15583555710578278,"12":-0.06547518459524243,"13":0.04158400001014204,"14":-0.0005940714571060402,"15":0.11153313522596993,"16":0.10468883347269892,"17":0.015786842174252417,"18":0.027409626026850323,"19":-0.052098004568138824,"20":-0.06430818923054517,"21":-0.093970819542433,"22":0.012798060708289585,"23":0.04139558541137327,"24":-0.11260873557612784,"25":0.11153409980507112,"26":0.08158282424774217,"27":-0.275123569043439,"28":-0.05374104268249142,"29":0.03669345491951955,"30":0.08640002578519293,"31":0.10937564682679365,"32":-0.2428839255475822,"33":-0.1461667417803256,"34":-0.03766888626558441,"35":-0.013223020211497545,"36":0.11325620516389526,"37":-0.0168861856649905,"38":0.11869013878046826,"39":-0.06603839571225995,"40":0.1128684574238202,"41":0.1872002840199361,"42":0.12594052565882863,"43":-0.05989540597910235,"44":0.03149605336990812,"45":-0.08592045514516823,"46":-0.016895456775523423,"47":0.10859837037518634,"48":-0.0346082600900908,"49":0.03918095967387918,"50":-0.14921009914583294,"51":0.14524312757781843,"52":0.21677171443984433,"53":-0.02540723220406718,"54":-0.06792073475495644,"55":-0.1649365838792721,"56":0.14341801565944384,"57":-0.0710961838884705,"58":-0.22585208489162703}},{"sx":1,"sy":1,"depth":59,"w":{"0":-0.21205175464945838,"1":-0.07703233410920471,"2":0.18791353399351252,"3":0.05005697943044753,"4":-0.054516585190921306,"5":-0.1915715903281859,"6":-0.10144894433126289,"7":-0.07515299841803146,"8":-0.01440716028283213,"9":-0.05565567254730901,"10":0.07787112527929342,"11":-0.010913250377455169,"12":0.07510662758822535,"13":0.17095880554798448,"14":-0.1731468551117612,"15":0.17026004611609155,"16":0.10538158061865761,"17":0.06606274118852712,"18":-0.1769429394793313,"19":0.109930592908468,"20":-0.2167286851057139,"21":0.07923944355743452,"22":-0.07718319001057695,"23":-0.12703075126759333,"24":-0.014946779053382833,"25":0.049394622451518974,"26":0.20485116772961565,"27":0.00885825096372863,"28":0.14097855961978853,"29":0.08757460021984438,"30":0.1397704975518767,"31":0.07240951732222951,"32":-0.08899485114901409,"33":0.10861023166135544,"34":-0.10690624078845923,"35":0.044693940959749,"36":0.0931833470060376,"37":0.12667902531900757,"38":0.10371222482667022,"39":-0.026056432200715306,"40":0.26499998793895,"41":0.0698160771401506,"42":0.2726841526966741,"43":0.17097823138934712,"44":0.05864940482023882,"45":-0.05947212936014613,"46":0.03915806579179779,"47":0.17248562505846224,"48":0.09763645341765505,"49":0.04343002116999834,"50":0.0200676806582758,"51":-0.07524186429662891,"52":0.17852310729179202,"53":-0.09157291796927373,"54":-0.09456750328001914,"55":0.15065264040367599,"56":0.0793287473484089,"57":-0.26345467792266963,"58":-0.031735117949869676}},{"sx":1,"sy":1,"depth":59,"w":{"0":0.09799973144894676,"1":-0.18888129416309768,"2":-0.062322002420067,"3":-0.026743314764543995,"4":0.07901303321204936,"5":0.05392645463065288,"6":-0.003668994708260105,"7":0.01900424761917744,"8":0.029640032083745296,"9":-0.0673713767993349,"10":0.13335133720003517,"11":-0.007960610580886894,"12":-0.06337909097335859,"13":-0.012256034954727772,"14":-0.15810754446534175,"15":-0.0219124726002002,"16":0.06638933743074103,"17":-0.0221468280728543,"18":0.05696791788680696,"19":0.011824998807021104,"20":-0.19317214358034396,"21":-0.33709092780007116,"22":-0.06612849806065585,"23":-0.17444748272963562,"24":0.15621383329458938,"25":-0.03377405476375049,"26":-0.10718665788779116,"27":0.29500692679816537,"28":0.1339707279676858,"29":0.2649173820348765,"30":-0.04246923363183224,"31":0.015756248163925336,"32":0.1733184501500457,"33":-0.22611550701509026,"34":0.13031631543271213,"35":0.11613049487153154,"36":-0.2630065756735476,"37":0.05068669480544312,"38":-0.07857177819593635,"39":-0.04225221329268495,"40":0.13350891788472,"41":-0.014907799983554133,"42":-0.19351897601475426,"43":0.14609337748313359,"44":0.08256177287193801,"45":-0.10734087783764262,"46":0.001033154917148747,"47":0.1532168644496411,"48":0.015106224090177192,"49":0.10271087502627714,"50":-0.09850320193580737,"51":-0.11901132749712937,"52":0.13995049731950462,"53":-0.11830019001731232,"54":0.08194386260989282,"55":-0.15715451956460633,"56":-0.22876562508839543,"57":-0.05379060320801223,"58":0.021006001820109563}},{"sx":1,"sy":1,"depth":59,"w":{"0":0.09039714922066933,"1":-0.2818108233882651,"2":0.33810613585718663,"3":0.0545637621460772,"4":-0.37483120118124996,"5":0.2453571832435493,"6":-0.012454761733787043,"7":-0.2762660958725495,"8":0.1519654255149467,"9":0.05441732027747861,"10":-0.11039647905339854,"11":0.04330444457762741,"12":0.20328441443255982,"13":-0.1133664516211005,"14":-0.1926873594279977,"15":0.24964732215446805,"16":-0.10852129997611316,"17":0.08243376083893399,"18":-0.005221429477984903,"19":-0.2705310005272484,"20":0.07157182124085514,"21":0.044221975545174874,"22":-0.23557616050711366,"23":-0.04741755870220461,"24":-0.293172577339953,"25":-0.1475368332364447,"26":-0.027473424594362812,"27":-0.012124614230342055,"28":-0.15375622511354956,"29":0.210751355248251,"30":0.003106908710330732,"31":-0.04061832061965312,"32":0.056024297204291376,"33":-0.12292105908510366,"34":-0.030540456614917198,"35":0.1724245329538237,"36":0.03660635661471262,"37":-0.1985976511521233,"38":0.24536592418956688,"39":0.028308932176250703,"40":-0.12864562906791338,"41":0.09514767929928815,"42":0.007850612344739539,"43":0.1216879297570623,"44":-0.015686429540706058,"45":-0.08883197058962024,"46":0.10094888578206178,"47":-0.11269330596989761,"48":0.008039206044750991,"49":0.016610363981323317,"50":0.0873422963249416,"51":0.080679439635314,"52":-0.0467581573257352,"53":-0.02710104092358976,"54":-0.19451726074758874,"55":0.06992420673585831,"56":0.049081941430532704,"57":0.048792377198167536,"58":0.11545158624734395}},{"sx":1,"sy":1,"depth":59,"w":{"0":-0.22842863501584737,"1":-0.15872322810860626,"2":-0.0006602290586171063,"3":-0.07006769211827847,"4":0.018227713389539494,"5":0.1209688731237267,"6":-0.05822368178025401,"7":0.04983172872610165,"8":0.10964813898976404,"9":-0.0221850804663424,"10":-0.22959312132434767,"11":0.19920999894001468,"12":0.06868912443857644,"13":-0.15935950758365067,"14":0.10868365691014883,"15":0.18620548610957102,"16":-0.1202051135167891,"17":0.09006383914977255,"18":0.029480318011661618,"19":-0.09554286175475281,"20":-0.03696293881292232,"21":0.06296111280875481,"22":-0.0030225693150474605,"23":0.10221918474086292,"24":0.12695044681732165,"25":-0.051050343923878264,"26":0.1610341890899602,"27":-0.08227152857666632,"28":-0.12535478582397533,"29":0.06123747728247693,"30":-0.11829455452882953,"31":0.13711065292126054,"32":-0.1195252341759461,"33":-0.15016980397551563,"34":-0.1504687983663589,"35":0.0816231427874402,"36":-0.07564750805291831,"37":-0.011201189858862145,"38":-0.08751551497262654,"39":0.03553439526435712,"40":-0.1375388646682615,"41":0.14830174835851714,"42":-0.09817121428690652,"43":0.020411877414744227,"44":0.12070045224108536,"45":0.03998260704556241,"46":-0.15781945531787409,"47":0.05978442919116246,"48":0.13926129666713297,"49":-0.003300873874640628,"50":-0.04376438884167418,"51":0.1787920183727603,"52":-0.2307039459472425,"53":-0.11996433611400216,"54":0.0487367326053777,"55":0.003701914197765931,"56":-0.07871409191499282,"57":0.0774732871585302,"58":0.17006167495870622}},{"sx":1,"sy":1,"depth":59,"w":{"0":0.019269971378211424,"1":0.009295049248440776,"2":-0.1642284092627376,"3":0.09975924347360851,"4":0.043780352726594696,"5":-0.07455259449770933,"6":0.05219832154317749,"7":-0.050649619228013684,"8":-0.23822878538446837,"9":0.089258762474643,"10":-0.10944502820833422,"11":-0.05131303894263027,"12":0.11273616036936704,"13":-0.0533098653857734,"14":0.024779009993583574,"15":-0.023791569198614266,"16":0.07992460609838554,"17":-0.06588986027161477,"18":0.12425482251392529,"19":0.03324334630628676,"20":0.034745918040786736,"21":0.011292885227751952,"22":-0.009208501795961116,"23":-0.20121664880394488,"24":-0.2732421186848224,"25":-0.11591562427332433,"26":-0.18307933947773158,"27":-0.054820079659382945,"28":-0.008405227582756877,"29":-0.11673235436314669,"30":-0.1712368895162331,"31":-0.06724120975679104,"32":0.006596952752519052,"33":0.06087936444420804,"34":-0.0570079126686855,"35":0.05396095813281985,"36":-0.02517489030760579,"37":-0.029019050355182194,"38":-0.08444660750021174,"39":0.12971845234207005,"40":0.05386947834775592,"41":0.06795013803122317,"42":-0.09196463171839118,"43":0.10416709928337499,"44":-0.05422511317987715,"45":0.07800483982018015,"46":0.01306813838338234,"47":-0.050943023689058835,"48":0.006935956297082871,"49":-0.13380097968394014,"50":-0.1099041943427974,"51":0.09842789789904191,"52":0.05822900711984913,"53":0.005366492985116192,"54":0.12653305093136577,"55":0.010388573195741416,"56":0.012988370244382399,"57":0.03465081471851048,"58":0.15612312396610872}},{"sx":1,"sy":1,"depth":59,"w":{"0":0.2282705010695781,"1":-0.0023426051821209847,"2":0.0914847715796689,"3":0.021588072257979422,"4":-0.0926711286904121,"5":-0.11526039425190662,"6":-0.09308934421175333,"7":0.00979879044198437,"8":0.03195348013475628,"9":-0.08050015826390051,"10":0.04998139875406623,"11":-0.05047715467137816,"12":0.04402430359364339,"13":0.014017234835074359,"14":-0.13455453976700515,"15":-0.03686645145905811,"16":0.004448104765948407,"17":0.07068582669076622,"18":0.06172707237203129,"19":-0.08102375833905204,"20":0.12393677252590272,"21":-0.16158895173343044,"22":0.0154085838241737,"23":-0.03169696193919953,"24":-0.14596288792860482,"25":-0.004453179251586404,"26":0.03720004509769221,"27":-0.030050918143457738,"28":0.07279818803304303,"29":0.06682106961434084,"30":0.0685761860949816,"31":0.08584548592155386,"32":0.10228266100656462,"33":0.1329661117211665,"34":-0.19442669949561556,"35":0.08747329853008484,"36":-0.05276991690144362,"37":-0.19514566571918654,"38":-0.15684341736185323,"39":0.03562730851790126,"40":0.15400984922395342,"41":-0.009314228791147176,"42":-0.08642407986234521,"43":0.01063514293030653,"44":-0.06426892947891336,"45":-0.042700692099444305,"46":0.05303885399444357,"47":0.14820067506041157,"48":-0.07771977469494504,"49":0.32515863806853407,"50":-0.16549403509241972,"51":-0.01472528067874891,"52":0.08402074794975235,"53":0.028410987713475833,"54":-0.15974051437994977,"55":-0.19243877577419607,"56":-0.05593904967672005,"57":-0.22030634738853755,"58":0.02471847252854068}},{"sx":1,"sy":1,"depth":59,"w":{"0":0.11248695389956984,"1":0.08904368442713899,"2":-0.17553153805250235,"3":0.10802512945882346,"4":-0.08875868253891758,"5":0.04788610928811484,"6":0.15190102562405788,"7":-0.1941266174557702,"8":-0.1254607822864979,"9":-0.14452567805363353,"10":-0.0577461494198084,"11":0.04751068626677811,"12":-0.11257386287792273,"13":-0.07143449914049445,"14":-0.1417999859260806,"15":-0.04909532943395178,"16":0.008534532515661646,"17":-0.05535438175157581,"18":-0.012185006758011135,"19":0.14931573001052525,"20":0.2616527385669736,"21":0.05900863524052778,"22":-0.10099443144249969,"23":-0.005331541066044322,"24":-0.04902891589990625,"25":-0.08681415134608511,"26":0.026651123698556673,"27":0.025875424801545133,"28":0.05626476016273485,"29":0.17031675608635952,"30":0.13583677406309483,"31":0.030943910376582093,"32":0.09331973955664358,"33":-0.011018039663521089,"34":0.1236028402631186,"35":0.06012641299424667,"36":0.04199721130257119,"37":-0.016927739695427747,"38":0.029137544161986616,"39":-0.09357799419457047,"40":0.00640397331577533,"41":-0.02076361140905887,"42":-0.09183064230963778,"43":0.3598153133572563,"44":-0.026761841228246513,"45":0.12487819123161092,"46":0.10627277272487995,"47":0.25861822224414277,"48":-0.07256214472227693,"49":-0.2648767338805081,"50":-0.1059090759009229,"51":-0.06403982335034583,"52":-0.07663297666436157,"53":-0.030082369917372714,"54":-0.05676842238256088,"55":-0.04261853232750624,"56":0.015618932763801555,"57":-0.1310890553318423,"58":0.10823868470361044}},{"sx":1,"sy":1,"depth":59,"w":{"0":-0.1580324791183917,"1":-0.05072735761149725,"2":-0.2021406655768628,"3":0.09371105927574369,"4":0.055015201572401536,"5":0.16767324335342468,"6":0.0461162438474245,"7":0.2669911468477381,"8":0.1680485560433041,"9":-0.06202548244129346,"10":-0.03230765570370081,"11":-0.1061687677650527,"12":-0.2726579290573165,"13":-0.11396459418397996,"14":0.02448837870177071,"15":-0.022626622876681466,"16":0.38509062956311035,"17":-0.06952818568661798,"18":0.09031346709487757,"19":0.1077310044389087,"20":-0.06263345255883629,"21":-0.13524200384706492,"22":-0.15045820097532034,"23":-0.08975359369734305,"24":-0.052800007873542276,"25":-0.039423275165968066,"26":-0.08876310426082443,"27":-0.16811485764736303,"28":-0.0697233103019924,"29":-0.11616525036605814,"30":-0.0028111826571257,"31":-0.09688689878942457,"32":0.027105802868572972,"33":0.1463061069057407,"34":-0.1323666104750871,"35":-0.0484207119968622,"36":0.04345737878050392,"37":0.1574731772600351,"38":0.13905568409402935,"39":-0.005393817516546051,"40":0.008452108852962282,"41":-0.030010484297584208,"42":0.013061144168502117,"43":0.001325441616084732,"44":-0.1263040269418222,"45":0.017253303497089093,"46":-0.007278006379529268,"47":-0.07070665096285564,"48":0.030750668616012253,"49":0.012282295697353462,"50":0.041220207295761695,"51":-0.19664317817257826,"52":0.21179352037348137,"53":-0.08545630504958059,"54":0.011895432107202527,"55":-0.13145140449060871,"56":-0.07914704127827939,"57":0.06299006645071702,"58":0.20977206253626915}},{"sx":1,"sy":1,"depth":59,"w":{"0":-0.149674207829092,"1":-0.2593975200029999,"2":0.3522227130735835,"3":-0.01654832826327896,"4":0.0616424308960239,"5":0.03454476137844439,"6":-0.17115821491150016,"7":0.2038270841903494,"8":0.1198539520530822,"9":0.2798122358863184,"10":-0.023934005873866494,"11":0.22285809458913217,"12":-0.09907300051459093,"13":0.08571208792679154,"14":-0.04401092686671518,"15":0.10379364436480983,"16":0.12746617985601838,"17":0.09615710789897686,"18":0.09270753977997925,"19":-0.05533052756920169,"20":0.02679819841291925,"21":-0.03021355952642475,"22":0.008799509111437951,"23":0.27656007147148554,"24":0.03663411031920016,"25":-0.10385993505375002,"26":0.08694333532600491,"27":0.03116136295250956,"28":-0.18962323870609066,"29":0.06769819953708446,"30":-0.0871638005609971,"31":-0.0847778106355031,"32":0.07588835535351408,"33":0.13077368543272144,"34":0.23619031492786127,"35":-0.1039759018635073,"36":-0.08969586798422395,"37":0.14256186539651292,"38":-0.07718157881304467,"39":0.046918998511089244,"40":0.10554421845623871,"41":0.11138085116344602,"42":0.1682125039803221,"43":-0.10822158524890954,"44":0.14861876547106076,"45":0.17758350571226997,"46":-0.1653971982968519,"47":0.221468533550708,"48":-0.24400700638671322,"49":0.09694972575834505,"50":-0.07459571168699684,"51":-0.010737606011162509,"52":-0.05715543671197683,"53":-0.09289912972453986,"54":-0.0436854441396998,"55":-0.13142327095032677,"56":-0.042035064562417616,"57":0.021284465835273575,"58":-0.006552358475219404}},{"sx":1,"sy":1,"depth":59,"w":{"0":0.195731669283311,"1":-0.14002322675317602,"2":0.208269825429374,"3":-0.05939856292455373,"4":-0.14783069938116278,"5":-0.002768474257507535,"6":-0.1440338887335071,"7":0.047954202134593706,"8":-0.031746792438981146,"9":0.11183239329660939,"10":-0.004096394624878901,"11":-0.008580154277757537,"12":0.03108558391913259,"13":0.12760164245807207,"14":-0.14116996161975362,"15":-0.18570982379213508,"16":0.13376375092147608,"17":0.13858096422486116,"18":-0.21778344255670523,"19":-0.04620011454510478,"20":0.03332284628493592,"21":0.07849115247008896,"22":0.07897940079618532,"23":0.08611423019182264,"24":0.17173460257237783,"25":0.048905103118729164,"26":-0.03326436817580284,"27":-0.11119252504040134,"28":0.11895325724029769,"29":0.21258768951429982,"30":0.06243099971332836,"31":-0.03141648102851063,"32":0.03318538264810343,"33":0.2610235465267038,"34":0.05456820869747126,"35":0.14787180193457908,"36":-0.0474929995865042,"37":0.08888530621617956,"38":-0.12393906856981274,"39":-0.08511328926311756,"40":-0.1909263585345417,"41":-0.08675693948843267,"42":0.05671616244594867,"43":0.13588928586484,"44":-0.07091789087084047,"45":0.051274315619329415,"46":0.03690411930011345,"47":-0.004693723966956164,"48":-0.03959499579353937,"49":0.05838507687835221,"50":-0.07267694096428738,"51":0.053718748847147044,"52":0.08197926356875003,"53":-0.017951129043325593,"54":-0.17215407016149004,"55":-0.14431174731772586,"56":-0.01495938231337834,"57":-0.1166833932658754,"58":-0.09804548342919149}},{"sx":1,"sy":1,"depth":59,"w":{"0":-0.018753298412656546,"1":-0.3988023160198015,"2":0.05913511768931513,"3":-0.030403919753564292,"4":-0.2662632957308292,"5":0.23901350056772336,"6":0.14281909407592502,"7":-0.15912435176310638,"8":0.20405329924058865,"9":0.12272573908058236,"10":-0.16475509645114159,"11":0.23124011404466463,"12":-0.006385827681103108,"13":-0.22877783163581322,"14":0.18725413809467467,"15":-0.11843522235635623,"16":-0.08222213598084273,"17":0.1565660534410051,"18":-0.045972515827207044,"19":-0.03196216150079769,"20":0.04766680116992392,"21":0.022673322228680744,"22":-0.09248163997595105,"23":0.10469140721650658,"24":-0.12265710927134331,"25":-0.049940603753948445,"26":-0.06960176180458888,"27":-0.007280467748354335,"28":0.0342351044229819,"29":-0.15442448599316816,"30":-0.11754623940730527,"31":-0.14532145933984653,"32":0.20713353447814584,"33":-0.034234152486330965,"34":-0.010782299874904568,"35":-0.0025450874970151167,"36":-0.04445517749729301,"37":0.011131662327062098,"38":-0.09900720304264683,"39":0.05199350750420719,"40":-0.11774348861966016,"41":-0.0712182890075187,"42":-0.12290839708447425,"43":-0.24830135532080885,"44":0.17914228389223144,"45":0.037173163642360944,"46":-0.014232367641201015,"47":-0.05263187652190641,"48":0.14315233811410366,"49":-0.07487606544253672,"50":-0.061820273998844835,"51":-0.0920579766986649,"52":0.16042811528607176,"53":0.06767142266996921,"54":0.01963212977078549,"55":0.06272258932236814,"56":0.05315866502514757,"57":0.056417672443240655,"58":0.026123437969490425}},{"sx":1,"sy":1,"depth":59,"w":{"0":-0.019494099261392336,"1":0.1407710235153898,"2":-0.06211280333377287,"3":0.038436651061788306,"4":0.2707909224849731,"5":-0.09117111713595485,"6":-0.143810286941167,"7":-0.06790534985012993,"8":-0.1487203060013158,"9":-0.06907432464327798,"10":-0.015375878599421374,"11":-0.1917201236018437,"12":-0.058751399609041896,"13":-0.0006337469255509324,"14":0.03564066256670567,"15":-0.02658577683604376,"16":0.1607420441249112,"17":-0.08478192586862064,"18":0.1196299311182797,"19":-0.07925265473702203,"20":-0.01756878833941767,"21":-0.08421624519421061,"22":0.09105174265309822,"23":0.12138522771127701,"24":-0.040983682620076706,"25":0.15129456654038578,"26":0.21180731218569876,"27":-0.03611074221343051,"28":-0.008823166162814727,"29":0.05067906159194902,"30":-0.12719436541186824,"31":-0.014360432783676817,"32":-0.1850815260334658,"33":-0.023695648568927873,"34":0.12157142075892836,"35":-0.14347346966886512,"36":0.15155552273434086,"37":0.038550118317525466,"38":0.060202207347265835,"39":-0.036143186506804544,"40":-0.007270749023911047,"41":-0.08599185285383329,"42":-0.04469142684563022,"43":0.0022790791513063397,"44":-0.1385632772221447,"45":0.11643583031600276,"46":-0.009696981196000674,"47":-0.2047521057927681,"48":0.19762022204760415,"49":-0.03998327992319622,"50":0.012887248667750786,"51":0.005506176310522472,"52":-0.1416300283400097,"53":0.14189347125902807,"54":0.055604109525323124,"55":-0.05629316823392587,"56":-0.05785035695491444,"57":-0.03129588375254832,"58":0.04896316710808888}},{"sx":1,"sy":1,"depth":59,"w":{"0":-0.2226236225164316,"1":-0.008619787472766427,"2":0.1902581775129976,"3":-0.18671916995185722,"4":0.41326768341383685,"5":-0.0010632178752378368,"6":-0.1094022353028999,"7":0.03454971072612216,"8":0.042419141076156054,"9":-0.11963021646830786,"10":0.2031854012478601,"11":-0.062486395045331246,"12":-0.16756811188270523,"13":0.04959560538173727,"14":-0.0036803428180766863,"15":0.06355881770845478,"16":0.006789232232668124,"17":0.17046938874610815,"18":-0.04127642181966381,"19":-0.1617991406666664,"20":-0.22840422954546596,"21":0.10920346368067918,"22":0.0879536088319677,"23":-0.17975512982151018,"24":0.025656981335217675,"25":-0.13667055162554795,"26":0.057688951358108996,"27":0.14997895551929702,"28":-0.018528320019328533,"29":-0.16679269476261274,"30":-0.0983598347251564,"31":-0.01929747876099334,"32":-0.21369139236207227,"33":0.05178651950021056,"34":-0.10264806222073213,"35":0.004134100396002275,"36":-0.1519391616714602,"37":0.04416961629912384,"38":-0.17790638240603424,"39":-0.12046915999818707,"40":-0.03660392608131015,"41":0.06151520332677636,"42":-0.006742538765548975,"43":0.014093113828870036,"44":0.14053338026397644,"45":0.015624219925805467,"46":0.07286896537120657,"47":-0.11137636029029352,"48":0.048685805831489334,"49":0.015464815693140134,"50":0.15089034959707504,"51":0.30713958571316746,"52":-0.045819887614474884,"53":-0.07683210497620047,"54":0.02205578721749743,"55":0.05032842925591968,"56":0.1043699734990385,"57":0.19695941650087304,"58":-0.2948974448840069}},{"sx":1,"sy":1,"depth":59,"w":{"0":0.032975333427779134,"1":0.18827494878958556,"2":-0.025200059647596845,"3":-0.08060588617916331,"4":0.0897332130785309,"5":0.012424574395367769,"6":0.1008041917576364,"7":-0.09231958225704821,"8":-0.01741557543467135,"9":0.08893216393625678,"10":0.19345346907752026,"11":-0.15959806707917118,"12":0.013846840452402791,"13":0.2665351781590806,"14":0.05898655997481104,"15":-0.10204639070468417,"16":0.2231775742403572,"17":0.014984080419753291,"18":-0.10393040810531053,"19":0.2082189245186432,"20":0.03222749453182783,"21":-0.06867779532138919,"22":0.1848960227771115,"23":0.07820689116127927,"24":-0.18725137380313334,"25":0.10269523363270837,"26":0.19792870283859065,"27":-0.015009242180899836,"28":0.018543853086511974,"29":-0.003909361257596394,"30":0.05567118907413411,"31":0.3157455453133806,"32":-0.11174072339706108,"33":0.10743022853969132,"34":-0.036477175519273694,"35":-0.14787068172929824,"36":-0.018804952286664383,"37":-0.14827971253820782,"38":0.08300479504751879,"39":-0.005654245506593737,"40":0.13357257540037723,"41":-0.0973588153345228,"42":-0.07577340814165433,"43":-0.14074278387104136,"44":0.21037570338017983,"45":-0.10501719811171092,"46":0.10774332154993543,"47":-0.30052484276735003,"48":-0.05316156337203683,"49":0.02044899775502784,"50":-0.06476337310943657,"51":0.09984732319177035,"52":0.003622624504824575,"53":-0.10190640007832123,"54":0.027301826308140424,"55":0.012835954798610981,"56":-0.08872189192980823,"57":0.06672048202631527,"58":0.09071037866224325}},{"sx":1,"sy":1,"depth":59,"w":{"0":-0.02440848645792891,"1":0.02309715982641012,"2":-0.0649324080118033,"3":-0.1369595287498389,"4":-0.0263508436121815,"5":0.019000578680822368,"6":0.11525170777665605,"7":0.21709495264653694,"8":0.17540585266755687,"9":-0.03939999406626508,"10":0.028727478312310213,"11":0.14037966662578746,"12":0.13559555499224585,"13":0.10869627846471538,"14":0.0816330247557284,"15":-0.04721664453151092,"16":-0.10079943098549345,"17":0.010887905712299119,"18":0.12603892976616055,"19":-0.1641597925787663,"20":0.1866157068054131,"21":0.030712220550246173,"22":-0.058887126182240575,"23":-0.011396968233922684,"24":0.08651927359943949,"25":-0.25529771977616056,"26":-0.060837398382984256,"27":-0.0028202685078186746,"28":-0.06504477384937898,"29":0.2820671513979142,"30":-0.01649109114877051,"31":0.0078110437875812825,"32":0.01360720347812448,"33":0.2624477007113456,"34":-0.06703721030484447,"35":-0.031352434757429624,"36":0.16308875427549865,"37":-0.007716569273699646,"38":-0.019132680971705212,"39":0.07987122956976264,"40":0.2318429246768354,"41":-0.18826248844360052,"42":0.14941788404030035,"43":-0.026358526415134333,"44":0.06565052443704131,"45":-0.21846414112135012,"46":-0.0032251187475909686,"47":-0.0275158489119995,"48":-0.15703052038995155,"49":0.07855992838684803,"50":0.1767680110773905,"51":0.14887274804697595,"52":-0.02231148510826646,"53":0.01629238670028914,"54":0.06882366799391658,"55":-0.09426993156080075,"56":-0.23346482299745835,"57":-0.065606813630333,"58":-0.2770940363472403}},{"sx":1,"sy":1,"depth":59,"w":{"0":0.1793129683647407,"1":0.22515828397172924,"2":0.058478239122059766,"3":0.03688999708657705,"4":0.07194068096919269,"5":-0.21096325407415562,"6":0.08795963464490063,"7":0.022498262626852127,"8":-0.2174415853924973,"9":0.15730740477016442,"10":-0.027562436367894728,"11":0.05980950892188004,"12":-0.07591541553698183,"13":-0.19021274515831021,"14":0.0751775046654266,"15":-0.04552735441607471,"16":0.12479871474588687,"17":-0.3029822681569066,"18":-0.05833679742582094,"19":-0.06452237318013185,"20":-0.02567742616623527,"21":-0.09285788401649066,"22":0.025878944219494694,"23":0.13392398071523778,"24":-0.09334846422385698,"25":0.06886837539623188,"26":0.1294816752376276,"27":0.04873192145930195,"28":0.24617845752822531,"29":-0.2769248275641063,"30":-0.05635248730678237,"31":-0.013965107414000784,"32":-0.2050407431360234,"33":0.1921392737343307,"34":0.08994146907642611,"35":-0.0062750530933120335,"36":0.1312250255468079,"37":0.0034257346982118813,"38":-0.012035461623559823,"39":-0.01541199786838769,"40":0.0269398429474422,"41":0.13573500668102012,"42":0.07118332923062776,"43":-0.08855167648624702,"44":-0.09564069537899292,"45":-0.051077126361086515,"46":-0.04456049372904854,"47":-0.1761297890967281,"48":-0.05166913355430549,"49":0.053976734542820495,"50":0.06067981684538433,"51":0.004964560276246239,"52":0.05378617171358698,"53":-0.20983930966161507,"54":-0.09354925907772416,"55":0.1624852764233023,"56":-0.1054278811581857,"57":-0.06958884781910353,"58":-0.017876228206671122}},{"sx":1,"sy":1,"depth":59,"w":{"0":0.04113870453385035,"1":0.06989646682685993,"2":-0.09215072606178167,"3":0.014818365950448789,"4":-0.05690302952587806,"5":0.02534060833563863,"6":-0.042461011578621276,"7":-0.15658700232967118,"8":-0.07157795265347987,"9":-0.3100055257901074,"10":-0.10810324775419677,"11":-0.12057689433007891,"12":0.048130092783563956,"13":-0.05993471243527665,"14":-0.07937846801263557,"15":0.13894628469965,"16":0.18700108889598904,"17":-0.026701991850755315,"18":-0.3433106885578639,"19":0.15726932812126576,"20":-0.05281647946405124,"21":0.08531809671255648,"22":-0.060568760326090265,"23":0.19275468291452405,"24":-0.0885331834102374,"25":-0.11626074687164019,"26":0.11241768104310812,"27":0.019131616395095023,"28":0.004423108778026281,"29":0.09557921035018195,"30":-0.1484914597846419,"31":0.10762527570506736,"32":0.03518151594228226,"33":0.003386207445855495,"34":-0.004362156268597686,"35":-0.22920400904801327,"36":-0.2067020888665355,"37":0.09910538478244357,"38":0.06033080346851788,"39":0.35682676180027967,"40":-0.19911431695594312,"41":-0.0812553670986907,"42":0.07453024161288366,"43":0.02487062666115802,"44":-0.28319334561212556,"45":0.09243390091822691,"46":-0.006766748062713892,"47":0.024670672453422214,"48":-0.009637224032071057,"49":0.18793551112559398,"50":0.11488982942934348,"51":-0.07648744492491663,"52":-0.03987966387535227,"53":-0.25391557285028193,"54":0.03882438436056333,"55":-0.003950647993501647,"56":-0.11611222911049603,"57":-0.007722556160893111,"58":-0.14294691750113062}},{"sx":1,"sy":1,"depth":59,"w":{"0":0.04073086272138249,"1":-0.05306668128266151,"2":-0.2393991137830529,"3":0.02502327840863763,"4":0.10047947134343779,"5":0.004989305982449948,"6":-0.16304477981687693,"7":0.1697120295396892,"8":0.010129470994586534,"9":0.007088090211437622,"10":0.2392554430241605,"11":-0.08170284354673084,"12":-0.18021208782257486,"13":-0.06335184672368342,"14":-0.14522633753767952,"15":0.3580323391684665,"16":-0.06720407229975504,"17":-0.03483387761298172,"18":0.007715762872887236,"19":0.029371878223668796,"20":-0.18199471519269506,"21":-0.15907616277846212,"22":0.07596572760505807,"23":0.04624662839438357,"24":-0.1611121958185216,"25":-0.12004318635366416,"26":0.02352900812157012,"27":-0.1961620571746846,"28":-0.23965746219151482,"29":0.04709078996268931,"30":0.2078636097573044,"31":0.05147820362877784,"32":-0.20718655938777236,"33":-0.0077002865614029,"34":-0.004169835203095018,"35":0.06643941557501047,"36":0.0871564618742169,"37":-0.04781690041684212,"38":-0.22283567793348036,"39":-0.08854587070924173,"40":0.23692714066378842,"41":-0.0383524498961992,"42":-0.03673416559058095,"43":0.02923020743557233,"44":0.2992529569408009,"45":-0.1150467546749833,"46":-0.015198158290589249,"47":-0.1631810931154255,"48":-0.10840865853033688,"49":0.0022600950755491235,"50":0.10100884166304948,"51":-0.09383378903703604,"52":-0.006522336266865211,"53":-0.017830713816051544,"54":-0.13385390940378333,"55":-0.06256877882557253,"56":0.07889181169130877,"57":-0.06173226174934401,"58":0.043768095069193845}},{"sx":1,"sy":1,"depth":59,"w":{"0":0.12208994552114338,"1":-0.0704502737171586,"2":0.15071736175175585,"3":-0.036523334147027825,"4":-0.31230576996153336,"5":0.012163599500350232,"6":0.04824455526649231,"7":-0.10672548579080016,"8":0.2018335804501184,"9":-0.06508538652259949,"10":-0.19339316243316895,"11":-0.016034599216299416,"12":0.05715021016076169,"13":-0.1409509858308344,"14":-0.06958684569232243,"15":0.18362951309919268,"16":-0.09510485900362037,"17":-0.12406561766465607,"18":-0.08427662532168119,"19":0.02471896269674853,"20":0.02968104255569215,"21":0.04134772290362171,"22":-0.02767703388071456,"23":-0.11194967349751853,"24":0.01530039387043109,"25":-0.006713909559461631,"26":0.02096237110973306,"27":-0.10464360485662623,"28":-0.15329585893406017,"29":0.11205018560739509,"30":-0.08271008055355117,"31":0.07635209527093477,"32":-0.014032686684010703,"33":-0.06038564725110682,"34":-0.17433763540515693,"35":0.054126618737228516,"36":-0.12627466176187147,"37":-0.11257574453842661,"38":-0.012483942768880032,"39":0.05052345306148571,"40":0.1433445934718091,"41":0.05429427821838413,"42":0.2366762723823984,"43":-0.08095735702062909,"44":0.05351284099425724,"45":0.004208536585066649,"46":-0.07963290475238485,"47":0.022383073722167832,"48":-0.07383068655427676,"49":-0.28654225569194214,"50":0.19099119678911808,"51":-0.10998860140385325,"52":-0.006798223252425121,"53":-0.11907928042000136,"54":0.2306372711985661,"55":0.16337450823606114,"56":0.1842655421404075,"57":0.16544019638132748,"58":0.023716984652572742}},{"sx":1,"sy":1,"depth":59,"w":{"0":-0.09029612643841402,"1":-0.14555622159708054,"2":0.3479763429943978,"3":-0.05003729977029974,"4":-0.08334718053856456,"5":-0.016589813608339138,"6":0.05654754579586061,"7":-0.1565864019149969,"8":-0.12758716955781194,"9":-0.0037318430445905646,"10":0.06319828717564693,"11":-0.029432484575717507,"12":-0.06824763493094128,"13":-0.15521323832435963,"14":0.18238408406288306,"15":0.08843051521077706,"16":-0.08918147197050065,"17":-0.12738321771727068,"18":0.1438669857630765,"19":0.05419703889611854,"20":-0.15735451309642023,"21":-0.12085521212961917,"22":0.0719003347368126,"23":-0.1000464875247385,"24":-0.08571480067769983,"25":0.02563005126793633,"26":-0.05090770688119006,"27":0.13827910811604616,"28":-0.13920263962742974,"29":0.11610571538978233,"30":-0.0667430557395231,"31":0.193429438423942,"32":0.0040743760432095455,"33":-0.20085743606952233,"34":0.11197590114186178,"35":0.005968472899652092,"36":0.055171962654745846,"37":0.14661791859094417,"38":-0.08716437094589255,"39":-0.13303284506605792,"40":-0.12411055710639973,"41":0.0412785415994283,"42":-0.11120723760094639,"43":0.1889322278343746,"44":0.12649067306617845,"45":-0.17758353043395161,"46":0.2592876682564344,"47":-0.1628247933812282,"48":0.14066371966925867,"49":0.1090355897602908,"50":-0.12176494033366128,"51":-0.1337351473524507,"52":-0.03317076981824214,"53":-0.19003323893490695,"54":0.031653714398363196,"55":-0.03621891049446716,"56":-0.10105729420184317,"57":0.07555581597040933,"58":0.12141334439891174}},{"sx":1,"sy":1,"depth":59,"w":{"0":0.005885491358204937,"1":-0.35316974131408513,"2":0.1508865181876991,"3":-0.13683217183281013,"4":-0.0427385226507777,"5":0.026577369436232103,"6":0.06935087097848694,"7":-0.25362841549715326,"8":0.269860580052347,"9":-0.07500188125130748,"10":0.041049326555289936,"11":0.03553280652939126,"12":-0.20125825091307706,"13":-0.10186973177966809,"14":0.033068027674683705,"15":-0.14061019322753301,"16":-0.18135406638251914,"17":-0.20045639634403953,"18":0.056206521339062204,"19":-0.1379199514428403,"20":-0.03227611632545249,"21":0.05493997242392785,"22":0.07534537710212043,"23":0.06282512861412776,"24":0.11506865698812138,"25":0.026420965978114726,"26":-0.006691851628064022,"27":0.027985983341449756,"28":0.028256405958663935,"29":0.001306784458932761,"30":-0.06366572395915325,"31":-0.12630089940268607,"32":-0.10237610145621802,"33":0.014294100467001046,"34":-0.0636899742656724,"35":-0.07470916578169405,"36":0.04647939807019597,"37":-0.1943076545721058,"38":-0.05744276587415602,"39":-0.09817406562695796,"40":0.06477672064175595,"41":0.078035780739007,"42":-0.030873947526421308,"43":-0.09799486593127373,"44":0.11175432021936649,"45":0.0841278235296835,"46":-0.04291129414055689,"47":0.061035020165885565,"48":0.06195974874736275,"49":0.027660698241005022,"50":0.2371876338984047,"51":0.06467945766551451,"52":0.13793632543261886,"53":-0.06651348198330885,"54":0.13018000841899194,"55":0.15965706527248105,"56":-0.14016594634572666,"57":0.06855405944926792,"58":0.1201572860271482}},{"sx":1,"sy":1,"depth":59,"w":{"0":0.1504910553476947,"1":-0.18047019278980514,"2":-0.0019759623449836653,"3":-0.07121643749729938,"4":0.03878110819662353,"5":0.08976157504005584,"6":0.162833358123494,"7":-0.17203126489937226,"8":0.1289896459977196,"9":0.23202126424389677,"10":0.1794308870285136,"11":0.11620251026149167,"12":0.07762549803396386,"13":0.12497304282058283,"14":0.08154682915659056,"15":0.07900464400157135,"16":-0.04843446398183192,"17":-0.1378590289151815,"18":-0.03722246063547013,"19":-0.09943018566124665,"20":-0.1585481223219312,"21":0.12960345294023765,"22":-0.044728396102218175,"23":0.010138547455838271,"24":-0.19598469748920852,"25":0.06305961140194312,"26":0.0064125337152111895,"27":0.11752455392440458,"28":0.02197892076351791,"29":0.25941725435465623,"30":0.1440573741134025,"31":-0.056497065266895984,"32":-0.12732689686864773,"33":-0.007292457475266272,"34":-0.12464435969814289,"35":-0.08603094494603244,"36":0.1034791715189223,"37":-0.08555901059963224,"38":0.3763253549920057,"39":0.13225424758602702,"40":0.29459114404502895,"41":-0.21343336071867391,"42":-0.06521702303833281,"43":-0.21753913727970797,"44":0.1739336591757467,"45":-0.07897080608645303,"46":0.07108399183323276,"47":-0.04897715067971766,"48":-0.05503707983973236,"49":-0.09518394531206166,"50":-0.23270997814151034,"51":-0.09547169399034115,"52":0.06679334124126483,"53":-0.05364821382043751,"54":0.150017281025847,"55":-0.13768938728116914,"56":-0.08623988237297513,"57":0.013589071865190885,"58":-0.03662033944981324}},{"sx":1,"sy":1,"depth":59,"w":{"0":0.06077784988015925,"1":-0.07633832029776398,"2":-0.18637755893852712,"3":-0.0946440541902718,"4":0.08227209417341201,"5":-0.04712269657501398,"6":-0.17436492017222688,"7":0.031785205319130476,"8":-0.05813898600827413,"9":-0.1378482818319721,"10":0.061786100898831305,"11":0.16979731318493707,"12":0.1398805027371472,"13":-0.16399647358906555,"14":-0.11953874147522796,"15":0.15105374483540196,"16":0.09848369603557885,"17":-0.34945695765569185,"18":-0.004522599921966404,"19":0.019648502266715648,"20":-0.02299394227776975,"21":-0.03128425413061836,"22":0.05113949061835531,"23":0.0652345460626056,"24":-0.1345166694998483,"25":-0.07667666691684248,"26":-0.16128159530303274,"27":0.042177218550289386,"28":-0.15099942244111011,"29":-0.03213626912934086,"30":-0.10577306161156964,"31":0.008935129088310175,"32":-0.01554206580854172,"33":0.09178230439867849,"34":-0.11975897637014535,"35":-0.19844343389057767,"36":0.09984628233603617,"37":0.18307263139053226,"38":0.07209199519900697,"39":0.07020231558811044,"40":0.16105733290972407,"41":-0.03492699183387954,"42":-0.02800064936521589,"43":0.20370688396926126,"44":-0.19457350594245001,"45":0.06910687491314602,"46":0.22220297917304913,"47":0.0773200450193899,"48":0.11808143201980334,"49":0.08082312184512444,"50":0.08889882396568743,"51":0.009579422326418717,"52":-0.055866155159678015,"53":-0.1577868915309869,"54":0.14341540799643807,"55":-0.1773322332420728,"56":0.04756013896108828,"57":-0.07241987972471611,"58":-0.01812354129074871}},{"sx":1,"sy":1,"depth":59,"w":{"0":0.09667119477744401,"1":-0.05728309202935878,"2":0.18770433772472364,"3":0.286077643738455,"4":-0.14990352493786294,"5":-0.12342453953509358,"6":-0.16587008066127176,"7":0.1779992170375696,"8":0.002029078124129172,"9":0.007779392365959483,"10":0.03547161490856457,"11":0.039574019625778986,"12":0.0863284615963948,"13":-0.037882592014985665,"14":0.035332021660982246,"15":0.03362680618808839,"16":0.08280218318614488,"17":0.051242541062287164,"18":0.03094055320135178,"19":0.02983822389124433,"20":0.09494473556472838,"21":-0.2988234086393349,"22":0.059648377658122524,"23":-0.06592282142718475,"24":-0.0935385274952189,"25":-0.07744256119767128,"26":0.036440800795981707,"27":0.19749815447276037,"28":0.07312434710149815,"29":-0.07590211542512704,"30":0.031192438728574242,"31":0.018666551893667862,"32":-0.07206380815563142,"33":0.11875320639263612,"34":-0.11478877368107358,"35":0.05288708280816014,"36":-0.0075763193294219044,"37":0.042763364188490666,"38":0.09600516824885351,"39":0.17592255240811214,"40":-0.16485003993456096,"41":-0.027128176149579943,"42":0.04610721905136856,"43":-0.3492299685763572,"44":-0.1759317773799966,"45":0.11089030139455117,"46":-0.15777926144520082,"47":-0.03263881180021512,"48":-0.1917544885132314,"49":-0.06664137073907929,"50":0.008571904259363003,"51":-0.05835633987303966,"52":0.040390198763961264,"53":-0.14994863452021617,"54":-0.055199157088962225,"55":-0.2534557091200092,"56":0.13037198225070235,"57":0.051796742589295584,"58":-0.26140428140918087}},{"sx":1,"sy":1,"depth":59,"w":{"0":-0.02214543125135624,"1":-0.06528316496439932,"2":0.039981885339915466,"3":0.13476293232897263,"4":-0.020589525786256085,"5":0.16463714933631377,"6":-0.11343741198656804,"7":-0.034566196720239986,"8":0.11041447635489111,"9":0.022779429177360245,"10":-0.11538118656481713,"11":0.23565086136518873,"12":0.009084864082329296,"13":0.1328954933729024,"14":-0.017130316220143837,"15":0.20438562449870196,"16":0.09431051123838148,"17":-0.12237937328464049,"18":0.11561771033519529,"19":0.015828364664093684,"20":-0.3823042318579202,"21":-0.05223356674794766,"22":-0.12647991807220613,"23":0.12546830348935178,"24":-0.1181131215336744,"25":0.017683002616293752,"26":0.0901974330045893,"27":-0.1477012426696203,"28":-0.044097602368658666,"29":-0.006848369328243249,"30":-0.09666270497937676,"31":-0.010535248393150605,"32":0.11410770810603603,"33":0.03230801535679552,"34":0.08119524143484678,"35":0.038265988187244804,"36":-0.0678941819158845,"37":0.040638262230780646,"38":-0.05992700253041473,"39":-0.0580068739661139,"40":-0.05853855016725359,"41":-0.015325764647303546,"42":-0.17281402606243026,"43":0.11380243040921308,"44":-0.009950768338406092,"45":0.05823177156803521,"46":0.04422305547384455,"47":0.02253559235071074,"48":0.011366646247599406,"49":-0.03235221253272349,"50":0.06181925162012808,"51":-0.13776031818790263,"52":-0.028445604279694503,"53":-0.012627585429018214,"54":-0.12785732628154273,"55":-0.12258896312127324,"56":0.1005772738135684,"57":0.04786380843067372,"58":-0.04382839083314819}},{"sx":1,"sy":1,"depth":59,"w":{"0":-0.027252749488032697,"1":-0.032097347616871975,"2":-0.0538508351275793,"3":0.1076027370685157,"4":0.03429138067798305,"5":0.016649768853611364,"6":0.1575958436470806,"7":-0.018857454891287612,"8":-0.0068772203921186,"9":-0.024126141251351006,"10":-0.0749885899227532,"11":-0.09631775100569798,"12":0.045724008853726454,"13":-0.13331077183759024,"14":0.24688188004840295,"15":0.0852497011417986,"16":0.07809712600559249,"17":-0.04057839140162364,"18":0.09934587586672983,"19":-0.015419793779736492,"20":-0.26331331655344853,"21":-0.05981458543170025,"22":0.1762748773581571,"23":-0.041596677844963355,"24":0.046063883506743224,"25":-0.2855028356925467,"26":-0.016972816988775966,"27":-0.08286261463775402,"28":-0.14024040504436378,"29":0.10903501907928048,"30":0.3040726216039221,"31":-0.23774276212406445,"32":0.010154361618022502,"33":0.21050580348114137,"34":-0.08977201324341427,"35":0.14984970974686704,"36":0.0013287868941525235,"37":0.08266731961737536,"38":0.08214166872399987,"39":-0.10010324032326944,"40":-0.023990928997406437,"41":0.08643303521241476,"42":0.2627079964053557,"43":0.0845742125162607,"44":-0.18318484289184883,"45":0.25715531727412394,"46":0.15050978862162875,"47":-0.03748715608036439,"48":-0.05594124736793631,"49":0.04683749218169092,"50":0.003965744334450362,"51":-0.20015292177640556,"52":0.08834896762863298,"53":-0.09241783732293665,"54":0.03477979416873988,"55":-0.06105796620504469,"56":-0.14244181954947166,"57":0.063985716097797,"58":-0.1533338323704125}},{"sx":1,"sy":1,"depth":59,"w":{"0":-0.04245350885079767,"1":-0.04810489232234208,"2":0.11896110879940806,"3":0.2577133712535243,"4":0.2174001476430289,"5":-0.14619363385072193,"6":0.09832422932103407,"7":0.11871616127324187,"8":0.08286648819787312,"9":-0.015398096702467117,"10":0.007651928357482146,"11":-0.04686444166087309,"12":0.11411203440354363,"13":0.0017501310036886716,"14":0.04018210387895231,"15":0.18857707009592772,"16":-0.008601795275155807,"17":0.08915124221389802,"18":0.07048412416085988,"19":0.02692560056350873,"20":0.14730208299696695,"21":0.038691659448669716,"22":-0.040005677655004186,"23":-0.23555926202571778,"24":-0.20119748678125934,"25":0.10939777252308429,"26":-0.1226562148969297,"27":0.027352852756561068,"28":-0.04956904481937594,"29":0.12004265598118996,"30":-0.06518665265444866,"31":-0.15706521339661406,"32":-0.14214008182623358,"33":-0.20447143685773345,"34":0.011293551920024947,"35":0.1051261873770102,"36":-0.00472162169282519,"37":-0.059541890762661163,"38":-0.030659799599679884,"39":-0.012242399784934807,"40":0.15449665145891697,"41":-0.05189534264148133,"42":0.1652516649221221,"43":-0.003713509154871887,"44":0.13718207345379943,"45":0.017019747822988235,"46":0.008466468140601584,"47":-0.08122922024214434,"48":-0.02112030271139188,"49":0.022041926166556407,"50":-0.12699761823323377,"51":0.1068381046569905,"52":0.12768065645608814,"53":0.09536430813313089,"54":0.00949017903968739,"55":-0.12172951807463883,"56":-0.10970396849782202,"57":0.19761538651804125,"58":-0.028625802676536218}},{"sx":1,"sy":1,"depth":59,"w":{"0":-0.035547771308289115,"1":0.07063735134663829,"2":0.02021955135435938,"3":-0.02590100080499455,"4":0.16196849626128365,"5":0.07581119173494118,"6":0.17232946033204077,"7":0.1640216340775336,"8":-0.031169873913587085,"9":-0.0823152538201127,"10":-0.019988891770298774,"11":-0.26372672208589965,"12":-0.02116624020904132,"13":0.22465582905459844,"14":-0.02942832540057706,"15":-0.020128188075404552,"16":0.12936754054108737,"17":0.11955181179115243,"18":0.06571273142435415,"19":0.0450177661294689,"20":0.1437385414207295,"21":0.16142795829168224,"22":0.00018558998638650904,"23":0.0167655407859314,"24":0.11232226084105032,"25":-0.03009007942986066,"26":0.14298483526108022,"27":-0.09693852697331036,"28":0.14822102585725222,"29":-0.01233664279801998,"30":0.11777743080523259,"31":-0.25558835617596765,"32":-0.11020010870586204,"33":0.04683369174893797,"34":0.03291683560935604,"35":0.0722857318211587,"36":0.005690653959140135,"37":0.0997431078786637,"38":-0.013623918105414181,"39":0.37616659105487044,"40":-0.08163114943581905,"41":-0.080346983583258,"42":-0.12936551853588377,"43":0.08248943064320878,"44":0.04323503483828702,"45":0.15377043293396958,"46":-0.0122069890901948,"47":0.0935503646425259,"48":0.040990338234464845,"49":0.07284759159394276,"50":-0.14650266615600246,"51":0.04338427225528647,"52":-0.013799287691140014,"53":0.19438010327468205,"54":0.0722919536995522,"55":0.14898651723448786,"56":-0.10901150971400221,"57":-0.08662122823284515,"58":-0.0732019846531751}},{"sx":1,"sy":1,"depth":59,"w":{"0":0.20415064298394311,"1":0.048995130484530455,"2":0.20906080375436048,"3":0.07443919414020557,"4":0.17614437447645095,"5":0.21746692697074288,"6":-0.2359020322121242,"7":-0.06097219781748879,"8":0.04041682987783281,"9":0.15265087903758753,"10":-0.010387474944693026,"11":0.13470320206296046,"12":-0.02160482745976348,"13":-0.13261497450690823,"14":0.14782111479422722,"15":0.13393612283302525,"16":-0.1779143780539777,"17":-0.05187607871518599,"18":0.06357067503076841,"19":-0.03631475346632724,"20":0.23110548733815903,"21":0.048281423719103274,"22":0.04413982738202365,"23":0.13836467347560213,"24":0.15592757438378654,"25":-0.08643766322562663,"26":-0.0447449598000751,"27":0.0541971500997676,"28":-0.03296074366303571,"29":0.054845145643981706,"30":-0.07936085463571595,"31":-0.12741056509214302,"32":0.1281144609542298,"33":0.20278626530139,"34":-0.14198988013944128,"35":-0.04332145476953532,"36":0.24854738194037304,"37":-0.1929499465462872,"38":-0.0275652252435437,"39":0.09628751658486939,"40":0.07590548940294163,"41":-0.04426335386025942,"42":-0.10048402528435772,"43":-0.07455800788472683,"44":-0.16473605721411236,"45":-0.034278697696121206,"46":-0.057676514205087744,"47":-0.16299172934477837,"48":0.19793407875231186,"49":-0.028482494364708434,"50":0.011176604062043773,"51":0.12957369929460838,"52":0.016867590492070254,"53":0.13396203636859486,"54":-0.10141203745599514,"55":0.0867122443577901,"56":0.16396257483688215,"57":-0.0054358983620560455,"58":0.08179780123879707}},{"sx":1,"sy":1,"depth":59,"w":{"0":-0.0037537050406093344,"1":0.06875055678968403,"2":0.0774411747523308,"3":0.10552044985662105,"4":0.1607012944394115,"5":-0.004974196318975689,"6":0.14658291781245453,"7":-0.06204085014920718,"8":-0.05048634072230859,"9":0.03732874246875316,"10":0.028530214089759386,"11":0.004159677873297186,"12":0.07610371950468393,"13":0.09307588605304656,"14":0.06657114158344447,"15":-0.13040998399797743,"16":-0.04208055062263416,"17":-0.008850762063405872,"18":-0.20825781124699558,"19":0.017871983349548398,"20":0.03705328133477086,"21":-0.05082817457692794,"22":0.07786136987245923,"23":-0.030677052224243925,"24":-0.16828514680899967,"25":-0.039594552415730094,"26":0.09105577310194612,"27":0.05260812158903997,"28":0.037996474157157824,"29":0.041223994044927804,"30":0.04675060543195032,"31":-0.21237554090643956,"32":-0.07745968956698676,"33":-0.06808294877369242,"34":-0.004616761611317509,"35":0.2823824693995288,"36":-0.19106335906243385,"37":0.22117415818513753,"38":-0.0792812784477148,"39":-0.12196489992100973,"40":0.155558834796386,"41":-0.016924159672625748,"42":0.036196969389402006,"43":0.09498804861065664,"44":0.037101182604586114,"45":0.0740997899845842,"46":0.10156256404121777,"47":0.10363703803351258,"48":0.0743695219879778,"49":0.045534834535449736,"50":0.26318026824693097,"51":-0.03420783968331548,"52":-0.019478671309760623,"53":0.05780290317598908,"54":-0.11498936096956158,"55":0.032065058375221875,"56":0.09895567605566948,"57":-0.23781916943624531,"58":-0.0749089717281019}},{"sx":1,"sy":1,"depth":59,"w":{"0":0.018758840955212266,"1":0.003929340229680003,"2":0.038485632571841,"3":0.00723276170990013,"4":-0.0354767965646187,"5":-0.09913968072869699,"6":0.04255878934684558,"7":-0.011532501725630634,"8":0.08549201786916304,"9":-0.08778884663493808,"10":-0.30380473919418016,"11":-0.0052871022867104905,"12":-0.008213123596078554,"13":-0.028203776875436046,"14":0.14285540096861124,"15":0.12496524366835542,"16":-0.10191337283933397,"17":-0.06227991551645517,"18":0.16969886892625713,"19":0.1973411520699427,"20":0.07455751166623241,"21":0.11957527585440457,"22":0.010286371291153193,"23":-0.055511691792893295,"24":0.050301635931883165,"25":-0.044097784667916216,"26":-0.08529374693331496,"27":-0.11550889758580353,"28":-0.11838394782705465,"29":-0.07291981010643643,"30":0.28570336042895894,"31":0.07143736052195547,"32":0.04473922157792134,"33":-0.08376651940246037,"34":0.16088343750294098,"35":0.005778759570913447,"36":-0.11947983478425647,"37":-0.11408098026032738,"38":0.05128412032259185,"39":0.1226877762388544,"40":-0.2685773803428067,"41":0.3610692065133134,"42":-0.05612665925906209,"43":-0.2499414689497708,"44":-0.09845732567899743,"45":0.26821658087170047,"46":0.15486333398672908,"47":0.07170871044047117,"48":0.019883589913980943,"49":0.0033926353387658016,"50":0.14533904587893123,"51":0.12123886710599896,"52":-0.11350791943780071,"53":0.07231073859594096,"54":-0.10491806868774067,"55":0.03543254557931901,"56":0.1195141348594296,"57":0.10754575196208785,"58":0.13408307033038844}},{"sx":1,"sy":1,"depth":59,"w":{"0":-0.08458507762062695,"1":-0.01423220357592327,"2":0.25285736567413636,"3":0.12281838744557332,"4":-0.18216441153459667,"5":0.21622076464832934,"6":0.14265651646670077,"7":-0.1520542319995181,"8":0.025530262288845005,"9":-0.22238659552452725,"10":-0.05554177287203052,"11":0.22856061494546082,"12":-0.04670741706948634,"13":-0.04984404823963226,"14":0.1384710966077166,"15":-0.030346112248499157,"16":-0.1465380097479514,"17":0.013462679623534129,"18":0.08881580508609566,"19":-0.0069301758654987675,"20":0.005391039036451673,"21":0.10536852574187257,"22":0.12139840480499006,"23":-0.1343639063526986,"24":-0.03211279933005714,"25":-0.20051450333944565,"26":-0.05027853946178181,"27":0.003239943486932402,"28":-0.2084338663578538,"29":-0.12855639589586423,"30":0.05073494555040138,"31":-0.15939389200721762,"32":-0.03457169114810594,"33":0.11527012976350388,"34":-0.031229939081979498,"35":0.20723688678618257,"36":-0.12514075107016914,"37":-0.09051233022342596,"38":0.08575479736920075,"39":0.05970903028434935,"40":0.04527992456206794,"41":0.010553062522690946,"42":-0.01698854221511985,"43":0.06929757837182739,"44":0.024662239073706568,"45":0.09589693305838548,"46":-0.06071187159407893,"47":0.08077716947842861,"48":-0.13044852629577303,"49":-0.21366064065708654,"50":-0.1343697231168018,"51":0.17415768753767394,"52":-0.12386401679918749,"53":-0.08632906799964911,"54":0.06926175172291153,"55":0.07474873927596473,"56":0.043673165733107686,"57":-0.20367076532272496,"58":-0.07561870711637832}},{"sx":1,"sy":1,"depth":59,"w":{"0":-0.1801290188223532,"1":-0.045360252332424744,"2":0.013328837854442365,"3":-0.0789289531513518,"4":0.19260302603686835,"5":0.00040015989249673133,"6":-0.10069452209345002,"7":-0.15842851506741185,"8":-0.08406043551454423,"9":-0.0875200969262346,"10":0.11728402981325461,"11":-0.17220971310273273,"12":0.11350828936490705,"13":-0.052912162936026845,"14":0.21927758889768406,"15":-0.1855825250044711,"16":0.16001380263548132,"17":0.046124941757184394,"18":0.16491153002569492,"19":0.013837364932385974,"20":-0.07972251616504474,"21":0.23939129743677023,"22":0.13530712450317176,"23":0.02645760841159581,"24":-0.21086991435785227,"25":-0.0735112041604512,"26":-0.18687622907174056,"27":-0.1519741781395326,"28":0.038506276644049785,"29":0.06915177790455876,"30":0.14955822580522737,"31":-0.15982514830025302,"32":0.10504449493460549,"33":-0.16199241215332616,"34":0.015818989045104304,"35":-0.11246697656336588,"36":0.02545035270907501,"37":-0.02031409647833611,"38":-0.022057198663001452,"39":0.10225521864879916,"40":0.11086014611706127,"41":-0.0025425014885630693,"42":0.0177862407348082,"43":0.06928732500128809,"44":0.10273953534213465,"45":0.07786759927359742,"46":-0.07283465914541036,"47":0.08706088655331978,"48":-0.18621083086423096,"49":-0.08238742417794484,"50":-0.08142807466686645,"51":-0.1257069348473131,"52":0.06321232465879223,"53":0.025458934471324173,"54":-0.20789705533170608,"55":0.0305571094451158,"56":0.030077937008168524,"57":-0.1670359723444892,"58":-0.1794270021712249}}],"biases":{"sx":1,"sy":1,"depth":50,"w":{"0":0.09938234599973492,"1":0.10008952795922255,"2":0.09667890627969908,"3":0.08969214730319305,"4":0.09955803793576236,"5":0.10032360481032689,"6":0.0974665787820681,"7":0.09734095184818395,"8":0.09811356874887409,"9":0.099455350446286,"10":0.09887714885499096,"11":0.1004326352862249,"12":0.09998270641361875,"13":0.09696201161105171,"14":0.10253152795153157,"15":0.097510998219924,"16":0.1002727909371973,"17":0.09904464657937635,"18":0.09920838514150637,"19":0.10512915425613703,"20":0.10118980864508725,"21":0.09834615896915172,"22":0.10045082948283453,"23":0.09885873347062356,"24":0.09925547738105436,"25":0.10057635334670201,"26":0.09924498246931053,"27":0.11243501959193189,"28":0.10067230100444881,"29":0.10240636993500246,"30":0.10299814253062245,"31":0.09824375288641808,"32":0.09757842181583438,"33":0.10099371357362998,"34":0.1013085299196409,"35":0.09691651901999426,"36":0.1009201024264654,"37":0.10114960234257364,"38":0.099021566571582,"39":0.09781507883750938,"40":0.09853429875578655,"41":0.10043558625806005,"42":0.09714997801086547,"43":0.09882421548589893,"44":0.098869509206161,"45":0.09349064715162377,"46":0.10048042932633029,"47":0.09479617409437191,"48":0.09468570901249858,"49":0.10025420674195176}}},{"out_depth":50,"out_sx":1,"out_sy":1,"layer_type":"relu"},{"out_depth":50,"out_sx":1,"out_sy":1,"layer_type":"fc","num_inputs":50,"l1_decay_mul":0,"l2_decay_mul":1,"filters":[{"sx":1,"sy":1,"depth":50,"w":{"0":-0.05113160372140278,"1":-0.19208855847524742,"2":0.16071312253553138,"3":0.14022958147561307,"4":0.08400451277181176,"5":-0.1417275166530046,"6":0.16639757866953167,"7":-0.07036886186266889,"8":0.183007096838023,"9":-0.025427426394237167,"10":0.3670686729541692,"11":0.16734126601852822,"12":0.27401782438789385,"13":0.11038481683287221,"14":0.44145817945266813,"15":-0.023366027700343423,"16":-0.050524255662186615,"17":0.02948090124978728,"18":-0.1583984585693167,"19":0.6580609109286637,"20":0.3498087315535941,"21":-0.2210184688120308,"22":-0.18938857373814802,"23":0.02305123727617625,"24":-0.041354205740122205,"25":0.09236651076414977,"26":-0.0894116121100922,"27":0.36778960899110197,"28":-0.07804685029727176,"29":-0.01958612306121682,"30":-0.1844408159770729,"31":0.04667610965223338,"32":-0.218959414055691,"33":0.15062870903765901,"34":-0.14293712397956398,"35":0.0557664592287243,"36":-0.045353962703296655,"37":-0.027374488275617188,"38":0.0560315944564024,"39":-0.02363788485864152,"40":0.0784532910324297,"41":0.007105500277357234,"42":0.21608060161320417,"43":-0.052076315219438854,"44":0.07264261680699718,"45":0.16222315488505315,"46":-0.07533738434422632,"47":-0.09996675317674143,"48":0.16430086438224703,"49":0.05305690949763978}},{"sx":1,"sy":1,"depth":50,"w":{"0":0.05227104669018717,"1":-0.028101419057406655,"2":-0.08464055451085783,"3":-0.1257591597180602,"4":0.18076411050991542,"5":-0.1164360286509514,"6":-0.14514651600631415,"7":-0.01297701832860534,"8":0.21320518325711985,"9":-0.017378185338942843,"10":0.11157277360971235,"11":0.03989980661515817,"12":-0.07546703557304817,"13":-0.0007820513433072516,"14":0.002751338336929836,"15":0.0074770015255506035,"16":0.011525428301427285,"17":0.0018631659267537419,"18":0.06997702674754434,"19":0.19285859024847912,"20":-0.0931068923315999,"21":0.18635619677137308,"22":-0.005583577687539685,"23":-0.07358683928165398,"24":-0.1416808811660063,"25":0.11511265509393853,"26":-0.19640779065929126,"27":-0.1688614420328971,"28":-0.10397585735667429,"29":-0.20423108733715997,"30":0.001965974552532997,"31":0.0433869768432014,"32":-0.15891529138110067,"33":-0.056788373217577,"34":0.00009041670512867342,"35":0.08019264393150395,"36":0.08026510005246507,"37":-0.07125314342004181,"38":0.300390482813157,"39":-0.07133343083865397,"40":0.18873089973023494,"41":0.09165422123401011,"42":0.15410315712447412,"43":0.1473582945342863,"44":-0.009445605708864708,"45":-0.025837392488247585,"46":0.20370037670908522,"47":-0.09844611073077698,"48":0.042479839149985474,"49":-0.2379857880705727}},{"sx":1,"sy":1,"depth":50,"w":{"0":-0.07033023053357143,"1":-0.09994011127126744,"2":-0.2572791516289512,"3":0.20408865191818173,"4":0.025817724833543387,"5":0.13643691815481754,"6":-0.06608537458500219,"7":-0.06364451696862704,"8":0.2940285355937346,"9":-0.04083244082301986,"10":0.3109825338110511,"11":-0.09010623691298562,"12":0.028583315259772004,"13":-0.05637801395031784,"14":0.0997472121167431,"15":-0.14852670596288967,"16":-0.0028114232629789545,"17":-0.37668292759138106,"18":-0.11670972928200703,"19":0.011308767764049427,"20":0.18792821983076213,"21":-0.07290824708115089,"22":-0.17704491367966263,"23":0.06657739215102858,"24":0.04266102672125147,"25":0.06398582891051917,"26":0.18007932545349273,"27":-0.08375930701708874,"28":-0.10135938769565786,"29":-0.07527069627779671,"30":0.07697921396966477,"31":0.05559495431764493,"32":0.010196910137824153,"33":0.03759987772918115,"34":-0.016193349169214766,"35":0.32398282159803954,"36":0.015130559624673025,"37":0.344231732585801,"38":-0.05707745669511916,"39":-0.08507987007595633,"40":-0.022813311433465707,"41":-0.03798372661517909,"42":0.26162120498671393,"43":-0.28210697598379075,"44":-0.04547697153839085,"45":-0.03906514103576674,"46":-0.10671496742040464,"47":0.022269803948980423,"48":-0.030601978549841997,"49":0.10106301882803317}},{"sx":1,"sy":1,"depth":50,"w":{"0":-0.024761708534647486,"1":0.04489181307261718,"2":0.05542957229720496,"3":0.18037180844341846,"4":-0.17625870290512957,"5":-0.022402992451029086,"6":0.2039473219310112,"7":0.0026754138502320573,"8":0.1514975790437987,"9":0.12096431990548645,"10":0.13619519284648116,"11":0.027268145024856156,"12":0.006308054246995229,"13":0.03738001329470648,"14":0.13360798488505474,"15":-0.15752666718507968,"16":-0.03880491173234244,"17":-0.10718074667346512,"18":0.10348540944174905,"19":-0.24179932681803631,"20":0.13925548668759036,"21":-0.09145453302069266,"22":0.08163978368146847,"23":0.023795997851382908,"24":-0.11722376879460768,"25":-0.1298597745240565,"26":0.21502041697916968,"27":0.011988221328723733,"28":0.09214522107713768,"29":-0.0303149321400104,"30":0.1360795647006289,"31":-0.0031201004833598615,"32":-0.11422276701184782,"33":-0.020554427396296916,"34":0.10135099429242345,"35":-0.01949943730756607,"36":0.06281480852919213,"37":0.06274676399669062,"38":-0.06503678239340283,"39":-0.1545627832750308,"40":0.07948467059323612,"41":0.1995196098847297,"42":0.005682882985287827,"43":-0.1287751668145015,"44":-0.15618329866990946,"45":-0.027414007454500844,"46":0.17375193134170513,"47":0.026201694100946128,"48":0.2566492062286658,"49":0.09272214490583867}},{"sx":1,"sy":1,"depth":50,"w":{"0":0.029886092596463645,"1":-0.02531279079743358,"2":0.11193502574636746,"3":-0.39078241520649404,"4":0.196534616964376,"5":-0.21817936375109317,"6":-0.18643620678809,"7":0.10834141650572729,"8":-0.15138620030960478,"9":-0.007204114195850292,"10":0.15517974041555638,"11":-0.027288836710449578,"12":-0.25096420181782103,"13":-0.12904472718597484,"14":0.12039153645505667,"15":-0.035623059369306306,"16":-0.3122135649822127,"17":0.0036119562007575147,"18":0.23179862978055774,"19":-0.27342034373710467,"20":0.31599407604527063,"21":-0.08534546481262686,"22":0.3931554764287973,"23":0.024345916597380068,"24":0.11491180596572134,"25":-0.21499414613259105,"26":0.011839755501979125,"27":0.032768677355743785,"28":0.16135736714065216,"29":0.039355347247925734,"30":-0.0008716024298511997,"31":0.13431882584866278,"32":-0.13252486611660286,"33":0.2994865641403174,"34":0.12161703260089336,"35":-0.1571362035559277,"36":0.19101010711505695,"37":0.1737420106784838,"38":-0.13172792291582827,"39":0.0016809516931731649,"40":-0.091147715738071,"41":-0.1580061573737041,"42":0.07488678983381254,"43":-0.11543502386552947,"44":0.23357437519309276,"45":-0.1611756919206371,"46":-0.14818389542827573,"47":-0.19510465258659107,"48":0.22052856020743436,"49":0.06819530981341375}},{"sx":1,"sy":1,"depth":50,"w":{"0":0.23483921488629203,"1":0.01808813284681077,"2":0.04753339245511886,"3":-0.018256988993756936,"4":-0.09138992335727963,"5":-0.02761566785711785,"6":-0.06554935247504835,"7":0.11191127986533218,"8":0.1423876484607346,"9":0.1790074185218324,"10":0.015432942867102156,"11":-0.0783114564540121,"12":-0.07364319324885683,"13":0.17510781026046096,"14":0.06627136304034147,"15":0.10955367791129468,"16":-0.15498431354487313,"17":-0.2210373534708225,"18":-0.38089330901140905,"19":0.06690840239272948,"20":0.03132221084683684,"21":-0.060390651235577526,"22":-0.04066058908964906,"23":-0.08710100076345206,"24":0.16090820368043698,"25":0.031434903924879236,"26":0.2053768641689309,"27":0.030827605922710583,"28":-0.18874012561125494,"29":-0.08279322668059172,"30":0.1871512298706729,"31":-0.1668786813242338,"32":0.17122855882697122,"33":-0.2584419378137408,"34":-0.11191757068388686,"35":0.1448234947923116,"36":0.33748404043823005,"37":-0.04147548288768533,"38":0.17681007111497193,"39":0.05961974985882626,"40":0.19116439100553306,"41":0.13108858224839923,"42":0.14583921038481829,"43":0.25037870967026177,"44":-0.09299697581338559,"45":-0.13760544287460508,"46":0.04484925768045379,"47":-0.0009906446256629886,"48":-0.09658139622227326,"49":-0.17952949304188645}},{"sx":1,"sy":1,"depth":50,"w":{"0":-0.12816990570449027,"1":-0.14676527135970382,"2":0.16735437450296925,"3":-0.014394761671744374,"4":-0.045850742213660645,"5":0.10219171682210738,"6":0.08339512473530537,"7":0.07303788406321468,"8":-0.0744198016111331,"9":-0.1836848017967513,"10":0.07955911149674502,"11":-0.016087199359089317,"12":0.06259497714036233,"13":0.09164770257219469,"14":-0.052248822444331273,"15":-0.2028486805495609,"16":-0.12435964571816961,"17":-0.01062849066956323,"18":0.10988739464564427,"19":-0.10940233487138089,"20":-0.23102651720362982,"21":-0.10504911887864062,"22":0.2241939428911291,"23":-0.062452021360055454,"24":0.1447321060778635,"25":-0.022627584439878293,"26":0.2524047675456779,"27":-0.06419537180991583,"28":0.05220057736468046,"29":0.11221134554069097,"30":-0.0811417609701092,"31":-0.08549772132912031,"32":-0.11679082258497735,"33":0.13744878915910794,"34":0.08952589092701936,"35":0.18023961417731915,"36":0.0828843165795545,"37":-0.05261504027446295,"38":0.05750656772453773,"39":0.07141869715128232,"40":0.17581139676205565,"41":0.1378574886289568,"42":-0.1266249087738914,"43":0.1119740798236073,"44":0.03423274756763877,"45":-0.04119068441261649,"46":-0.09150036538863943,"47":-0.05941932360327644,"48":-0.03722595317826035,"49":0.16862663642106424}},{"sx":1,"sy":1,"depth":50,"w":{"0":-0.0014583063448282989,"1":0.15497201289446308,"2":-0.16810722895952157,"3":0.06315024235981039,"4":-0.47786425992468,"5":-0.056329150922465814,"6":0.061671201341650134,"7":0.18747537523574448,"8":-0.32821858545055216,"9":-0.07145120236066191,"10":0.21513752761862123,"11":0.021995314952373564,"12":0.20566200929844872,"13":-0.021478457828489957,"14":0.19921850320991186,"15":-0.12380170915327668,"16":-0.030923759376832255,"17":-0.029235264611439066,"18":0.0707231414855315,"19":-0.26390168699803235,"20":0.16968127499144592,"21":0.1290407863164026,"22":0.1538246438677577,"23":0.011846454310883662,"24":0.2808367403916592,"25":0.06188119958025675,"26":-0.18832690010957906,"27":0.17095918980458105,"28":0.04540181188504721,"29":0.12650034700767593,"30":0.14971000214003508,"31":0.08458834386642367,"32":-0.04349843289297628,"33":0.08734376470700259,"34":0.09692970900884679,"35":-0.1396981649294471,"36":0.033541518910669435,"37":-0.03869871444784148,"38":-0.4733590441759048,"39":0.0969459165847435,"40":-0.0017042929298948638,"41":-0.14588161759018434,"42":0.00694889463887857,"43":0.19801396028954757,"44":0.11590783320737104,"45":-0.12420628098458172,"46":-0.12144562414135426,"47":-0.16031886014724073,"48":-0.1193225093955949,"49":-0.1196323659309299}},{"sx":1,"sy":1,"depth":50,"w":{"0":-0.07620981704882555,"1":0.17135895263026935,"2":-0.052174150972737685,"3":-0.1906338585954147,"4":-0.19371411437664082,"5":0.01979466849859142,"6":0.06477277160173131,"7":-0.10928570298255355,"8":-0.07372120293148852,"9":0.08438947085212897,"10":-0.2672461738288783,"11":0.13732593462140394,"12":0.05270709708855538,"13":-0.1435006847135021,"14":0.09104111520130878,"15":0.17832330626105414,"16":-0.03835487063521438,"17":-0.056329215901935514,"18":0.1265921406076263,"19":-0.07915906621093381,"20":0.13573922382486492,"21":-0.14212035317511823,"22":-0.11598735341431399,"23":0.1803380676740424,"24":0.1640364841659056,"25":0.13891904681031486,"26":-0.1520530801754212,"27":-0.09234012498144452,"28":0.28662078119520623,"29":0.2891356480722935,"30":0.03779871465751657,"31":-0.03478638005353644,"32":0.07057565682947342,"33":0.2354847380748924,"34":-0.06559744849866521,"35":-0.10749705529559961,"36":-0.043157992500213835,"37":-0.11017205103569892,"38":-0.0016854058984018586,"39":0.04648175494185244,"40":-0.028892445479319986,"41":-0.15573922863772743,"42":0.006854936322829674,"43":-0.06636428813517987,"44":0.0694858127197568,"45":0.05332750063570913,"46":0.03362108925469224,"47":-0.11227007237392354,"48":-0.17333942634541682,"49":0.03317740029235698}},{"sx":1,"sy":1,"depth":50,"w":{"0":-0.11504079141726128,"1":0.11804951611344244,"2":0.15469403406246912,"3":0.29299415605682466,"4":-0.12224283909919302,"5":-0.05686768741776934,"6":-0.05830876522145257,"7":0.013358748161061475,"8":0.14535419187702958,"9":0.0555438044467957,"10":0.07845630347922475,"11":-0.06795116840072393,"12":0.11233126164886412,"13":0.17538482517223647,"14":0.33334609341051663,"15":0.08322278096393827,"16":0.11431953933785094,"17":0.11894333424047043,"18":0.09372019368514714,"19":0.06247336873238285,"20":0.07798255081359293,"21":-0.008906477358610249,"22":0.09718972424021646,"23":0.07249297279317152,"24":-0.1564182059493191,"25":-0.09928326099206151,"26":-0.21689777424629808,"27":0.2881036409894087,"28":0.03799020061247572,"29":0.12255055700200004,"30":-0.18014069302017466,"31":0.07341725154348963,"32":0.05181921415311869,"33":0.32857332634966624,"34":-0.08835247225447641,"35":0.1562774344251635,"36":-0.03271755856335797,"37":0.1648655458297737,"38":-0.017254335499942108,"39":0.11919005466877028,"40":-0.032765226387643225,"41":-0.004708641269987544,"42":-0.03339633684509968,"43":0.05094698332158264,"44":-0.008091398523103258,"45":-0.027268500753122225,"46":0.044106740869567465,"47":-0.007678405821548063,"48":-0.2159074475553389,"49":-0.08322987248306803}},{"sx":1,"sy":1,"depth":50,"w":{"0":-0.10687525135765259,"1":0.1789150159202083,"2":-0.02438313323122873,"3":-0.21105160746597043,"4":-0.03796312261670215,"5":0.17289394829247778,"6":0.21430279811676414,"7":0.026062006718117193,"8":-0.09712015420220999,"9":0.015550750664699128,"10":0.12431084121969109,"11":-0.0401281775306347,"12":0.10943482703360445,"13":-0.0763152795716685,"14":-0.15678489732581055,"15":0.12182026020069073,"16":0.057962968863931236,"17":-0.11882226292399105,"18":-0.22615988059829456,"19":-0.11148116006109993,"20":-0.1468942842544273,"21":0.10221552280971928,"22":0.027987901188861943,"23":0.13794529271291275,"24":0.055570230131321896,"25":-0.03986763471986875,"26":0.10346369740391784,"27":-0.14921716210528368,"28":-0.011443968263290654,"29":0.1428407267903582,"30":-0.08145240502992496,"31":-0.1036269465969101,"32":0.10419295335319645,"33":-0.017458281131224898,"34":-0.008965079670767557,"35":0.01735269093190118,"36":-0.10815428762229143,"37":0.03854499059983578,"38":-0.010899534082201288,"39":-0.04010649376243746,"40":-0.11518875455648604,"41":0.09658166973476935,"42":-0.02563517766023038,"43":0.1601196074765392,"44":-0.14305789702851432,"45":-0.008754151666519333,"46":0.05623141345853137,"47":-0.11789930504586192,"48":0.02432830147003705,"49":0.03487011723718324}},{"sx":1,"sy":1,"depth":50,"w":{"0":-0.1935470720456178,"1":0.05315285450525112,"2":0.11475857107320155,"3":0.017006452254088363,"4":-0.011552224813153633,"5":-0.2763290125899421,"6":-0.10527836852198882,"7":-0.05514272596558744,"8":-0.0569394649230249,"9":-0.2050911286146233,"10":0.13279864330100893,"11":-0.1734848435982245,"12":-0.13031862269973304,"13":-0.12565613044337834,"14":0.23969047355964748,"15":0.19512332971106652,"16":0.03918981488107088,"17":-0.0937141353029314,"18":-0.14341404231454136,"19":-0.027758530237622644,"20":-0.046023303788093044,"21":-0.12833409372784238,"22":0.024552196751195052,"23":-0.025239787843022003,"24":0.3736971696787764,"25":0.004185970235241502,"26":-0.09239128614002637,"27":-0.020005487817668796,"28":0.041239165903500005,"29":-0.16037659089311843,"30":0.16305329447342332,"31":-0.10268985126316527,"32":0.21431696064636016,"33":0.0631667475071634,"34":-0.15865019474213998,"35":-0.21915997711111812,"36":-0.19868706067257572,"37":0.05469293776577846,"38":-0.09078652185000176,"39":0.18524320287652665,"40":-0.08126827703078891,"41":0.08939301363767233,"42":-0.013902696673643827,"43":0.029072808299715546,"44":-0.09237935899686071,"45":-0.1833675931344869,"46":-0.22956949312542788,"47":0.28987532563558277,"48":0.02707277234166634,"49":0.0043276838409938715}},{"sx":1,"sy":1,"depth":50,"w":{"0":-0.18880209633350856,"1":-0.09093230934338627,"2":0.0014684741527608831,"3":0.3749189905079858,"4":-0.010150622883621374,"5":-0.10877530875434054,"6":0.07735813181205614,"7":-0.117434434942786,"8":0.24363252322700837,"9":-0.20211646575801306,"10":0.15753167738238766,"11":-0.001953233388382231,"12":0.06196740508477609,"13":0.16848701061263532,"14":0.0055472805608186865,"15":0.26304890761806854,"16":0.12065912542157418,"17":0.07529097333710705,"18":0.0007422513110193568,"19":-0.06181999104340571,"20":0.13542462020956456,"21":-0.2116324262584185,"22":0.0487237839247446,"23":0.12010950548655712,"24":-0.070553234748083,"25":-0.004535245039012348,"26":-0.13375816931642848,"27":0.26893195292092065,"28":0.13768587846110175,"29":0.06847851019717247,"30":0.12925820907532667,"31":0.11281280877453902,"32":0.02505317625889801,"33":-0.048561589276011306,"34":-0.151893306344746,"35":-0.11385490073477898,"36":-0.07631366997146141,"37":0.2459424864190043,"38":-0.18566903426960474,"39":0.12329944252966824,"40":-0.0041139496400029495,"41":-0.09051003600241196,"42":-0.13015026515733297,"43":-0.10492066564527847,"44":0.09774930654100582,"45":0.16895880265633234,"46":0.0024129463734757677,"47":0.03636598277119772,"48":0.04355397199471456,"49":0.24040757391864848}},{"sx":1,"sy":1,"depth":50,"w":{"0":-0.1520548756253419,"1":0.17007995705527607,"2":-0.0891958425715465,"3":0.09312962414881826,"4":-0.08212303920470647,"5":-0.20883559502241034,"6":0.014912155991733008,"7":-0.03944619739961909,"8":-0.23747834330364134,"9":-0.009039619083681985,"10":0.02784949454296629,"11":0.08637819001601303,"12":0.002519752478841843,"13":0.00966703114879355,"14":0.07661718655060258,"15":0.15386510717595084,"16":0.11763451056209387,"17":0.08154487327411451,"18":0.07039822016930981,"19":0.09957907470267396,"20":0.018882101304063977,"21":-0.033020991584659626,"22":0.015988231819515215,"23":-0.11034211397418543,"24":-0.25799348361552243,"25":-0.29618422552318485,"26":-0.04382466551718336,"27":0.06472763651429304,"28":-0.07001663225861898,"29":-0.12292725077149273,"30":-0.27054086709740366,"31":0.2796111883166042,"32":0.04478911916850443,"33":0.19923902028576063,"34":0.12171171045724821,"35":-0.10233007904923294,"36":-0.017589688493545676,"37":0.2615358058207575,"38":-0.2464532487031106,"39":0.01152685541336163,"40":0.2546150133640371,"41":-0.012015792300082505,"42":0.11697817504302904,"43":-0.15440775343520793,"44":-0.14196878153621353,"45":0.01016005555800577,"46":0.06480305227321209,"47":0.22834707583556382,"48":0.009397282802371176,"49":-0.11846032801123262}},{"sx":1,"sy":1,"depth":50,"w":{"0":-0.08670601372250036,"1":-0.12337566619343195,"2":0.009091938353430092,"3":-0.05473295763003371,"4":0.07503577532366044,"5":0.12809050532084879,"6":0.0934442622790178,"7":0.15998547143166778,"8":0.27582922498064394,"9":0.00980274577643029,"10":0.003679312741810459,"11":-0.20981817988045723,"12":-0.0379903310127627,"13":0.019926423876868302,"14":-0.34382814086130326,"15":-0.24781899851004716,"16":0.03034385494438587,"17":-0.03644137247290022,"18":0.0646455466652773,"19":0.150419357139718,"20":-0.10749140119136028,"21":-0.0521509890778272,"22":-0.010646616664143899,"23":0.024142861771136795,"24":0.05692408426096012,"25":0.06615925894516346,"26":0.10139687853186491,"27":-0.16418450720101055,"28":-0.11970241821004747,"29":0.2460300688894006,"30":0.23559879329765926,"31":0.021723412495620525,"32":-0.13210515527096933,"33":0.22782349827951018,"34":0.10184470726994865,"35":0.022984197256088766,"36":-0.019876580980189636,"37":0.15447482685933553,"38":-0.039410423190264936,"39":-0.07257599820022362,"40":-0.06200843607731643,"41":0.1318679277726454,"42":0.3620876461201385,"43":-0.006087247956668579,"44":0.0046282024723887085,"45":-0.05307143474244911,"46":0.004331361019122226,"47":-0.15420488947770303,"48":0.04681806490949825,"49":-0.017191586362937012}},{"sx":1,"sy":1,"depth":50,"w":{"0":-0.11047757980864656,"1":-0.05311193507510611,"2":0.03406955221215274,"3":-0.04721669134996559,"4":0.047664720530433746,"5":-0.10692212761812282,"6":0.08965315220649228,"7":-0.07784062899998863,"8":0.24239503362512466,"9":-0.11835257622081718,"10":0.029089100311272018,"11":-0.12530028276550617,"12":0.042007802341584646,"13":0.036561378324203704,"14":0.11746586478252546,"15":-0.11873392012055209,"16":-0.07326434835440383,"17":0.010174424262621076,"18":0.12963374422350646,"19":0.05970283843849583,"20":0.10182279364585411,"21":0.26890786931172467,"22":-0.009622966802523048,"23":0.029610406653423228,"24":0.15005483341951106,"25":0.029511523480542732,"26":0.06856426305577329,"27":0.00612391587004947,"28":0.005885008525203133,"29":0.003953670680027667,"30":-0.03334587558099256,"31":0.057519666341409835,"32":-0.09190995309711514,"33":-0.14288517593385483,"34":-0.16247744217050372,"35":-0.23601784960140793,"36":0.024090291026990614,"37":-0.08628851741835106,"38":0.11240847369872603,"39":0.05777212838903245,"40":-0.0354203824408843,"41":-0.16200166616110873,"42":0.008446470800667214,"43":0.10070750400991282,"44":-0.03640648657073544,"45":-0.2495465357315372,"46":0.015309828270174455,"47":0.12448835932914587,"48":0.06831482480111163,"49":0.12856171185899712}},{"sx":1,"sy":1,"depth":50,"w":{"0":-0.0011208298959798893,"1":-0.10276544424616951,"2":0.06764235812947425,"3":0.14500467144146748,"4":0.0011396802877558,"5":0.06174776317651715,"6":-0.024449771797780007,"7":0.15564674208369608,"8":-0.05616737710331363,"9":-0.2484027876405741,"10":-0.14291481414469526,"11":0.1550705502672833,"12":-0.0032580257429032145,"13":-0.29042978193238017,"14":0.1697189723330391,"15":0.04980120324652503,"16":-0.04115817277326074,"17":0.12753381782386447,"18":0.060972054155089404,"19":0.05774905777732202,"20":-0.04711459531429525,"21":0.23085580163222022,"22":0.10283206055921323,"23":0.07658474561682699,"24":-0.1939110355979126,"25":0.29519818994030167,"26":0.06481478463947896,"27":0.10941360488888975,"28":-0.1083265266665727,"29":-0.06481439347056626,"30":0.14219523579788862,"31":-0.015844301400381604,"32":-0.07643000423279987,"33":0.002504125134730676,"34":-0.23794717627711948,"35":0.021216196362106216,"36":0.12523596472939558,"37":-0.0035392880666843506,"38":0.2434675212330917,"39":0.08729488215204424,"40":-0.04348855459074519,